{"learner":{"attributes":{"scikit_learn":"{\"_estimator_type\": \"classifier\"}"},"feature_names":["Tenure","MonthlyCharge","StreamingMovies","StreamingTV","Contract_Two Year","Contract_One year","Multiple","InternetService_Fiber Optic","Item4","Phone","PaymentMethod_Credit Card (automatic)"],"feature_types":["float","float","int","int","i","i","int","i","int","int","i"],"gradient_booster":{"model":{"gbtree_model_param":{"num_parallel_tree":"1","num_trees":"100"},"iteration_indptr":[0,1,2,3,4,5,6,7,8,9,10,11,12,13,14,15,16,17,18,19,20,21,22,23,24,25,26,27,28,29,30,31,32,33,34,35,36,37,38,39,40,41,42,43,44,45,46,47,48,49,50,51,52,53,54,55,56,57,58,59,60,61,62,63,64,65,66,67,68,69,70,71,72,73,74,75,76,77,78,79,80,81,82,83,84,85,86,87,88,89,90,91,92,93,94,95,96,97,98,99,100],"tree_info":[0,0,0,0,0,0,0,0,0,0,0,0,0,0,0,0,0,0,0,0,0,0,0,0,0,0,0,0,0,0,0,0,0,0,0,0,0,0,0,0,0,0,0,0,0,0,0,0,0,0,0,0,0,0,0,0,0,0,0,0,0,0,0,0,0,0,0,0,0,0,0,0,0,0,0,0,0,0,0,0,0,0,0,0,0,0,0,0,0,0,0,0,0,0,0,0,0,0,0,0],"trees":[{"base_weights":[-8.058842E-2,9.3934083E-1,-1.1009271E0,-2.3650123E-2,2.2193167E0,-1.2858264E0,-1.9088048E-1,3.209722E-1,-1.0918138E0,1.5174208E0,2.837274E0,-1.3366797E0,-8.8113517E-1,1.0000762E-1,-3.8155472E-1,8.920782E-1,-1.0878781E0,-7.455819E-1,-1.1720171E0,1.9154932E0,8.82363E-2,3.0478396E0,2.0450902E0,-1.0056072E0,-4.03645E-1,4.1329986E-1,-1.09788E0,6.03762E-1,-1.0012999E0,-4.2553982E-1,1.2901512E0,-1.2539552E0,-7.982515E-1,-1.083744E0,1.8444376E-1,-1.2216825E0,-6.6806155E-1,2.485418E0,4.3741807E-2,1.149197E0,-7.5453E-1,1.0087048E0,2.2540305E0,1.1444334E0,2.643372E0,-1.2159628E0,-3.955483E-1,1.493576E0,-6.001825E-1,-4.9503344E-1,-1.138969E0,1.5633116E0,-2.2126357E-1,3.998725E-1,-1.1000704E0,-1.890983E-1,1.0504167E-1,5.701398E-1,1.0149721E-1,-4.0675247E-1,-2.9260668E-1,1.2773935E-1,-2.799536E-1,-3.516354E-1,-7.912596E-2,5.3853285E-1,-1.09050475E-1,-2.8583476E-1,-3.9801535E-1,-2.7983513E-1,6.8464107E-3,9.5632213E-1,5.754548E-1,2.6153398E-1,-2.3925991E-1,4.403971E-1,-1.935579E-1,3.0484281E-2,-3.462382E-1,3.1267005E-1,7.7918696E-1,6.898008E-1,4.195375E-3,8.6691016E-1,3.7850526E-1,-1.19075045E-1,-3.8300347E-1,-2.2920233E-1,2.3956029E-1,5.615261E-1,-5.9412222E-2,5.169335E-2,-2.7388027E-1,-2.0577295E-1,4.389028E-2,-2.540137E-1,-3.631889E-1,6.826769E-1,1.029127E-1,-2.0076878E-1,1.7182085E-1,3.8904658E-1,-2.088985E-1,-1.1877632E-1,-3.5072485E-1],"categories":[],"categories_nodes":[],"categories_segments":[],"categories_sizes":[],"default_left":[0,0,0,0,0,0,0,0,0,0,0,0,0,0,0,0,0,0,0,0,0,0,0,0,0,0,0,0,0,0,0,0,0,0,0,0,0,0,0,0,0,0,0,0,0,0,0,0,0,0,0,0,0,0,0,0,0,0,0,0,0,0,0,0,0,0,0,0,0,0,0,0,0,0,0,0,0,0,0,0,0,0,0,0,0,0,0,0,0,0,0,0,0,0,0,0,0,0,0,0,0,0,0,0,0],"id":0,"left_children":[1,3,5,7,9,11,13,15,17,19,21,23,25,27,-1,29,31,33,35,37,39,41,43,45,-1,47,49,51,53,55,57,59,61,63,65,67,69,71,73,75,77,-1,79,81,83,85,87,89,91,93,95,97,99,101,103,-1,-1,-1,-1,-1,-1,-1,-1,-1,-1,-1,-1,-1,-1,-1,-1,-1,-1,-1,-1,-1,-1,-1,-1,-1,-1,-1,-1,-1,-1,-1,-1,-1,-1,-1,-1,-1,-1,-1,-1,-1,-1,-1,-1,-1,-1,-1,-1,-1,-1],"loss_changes":[1.6785968E3,9.943951E2,1.3542773E2,1.7017665E2,1.4592456E2,1.2609985E1,4.3309566E1,2.822432E2,2.2574768E0,9.3312836E1,2.4299683E1,3.7609863E-1,2.2260101E1,6.1153164E1,0E0,1.3130627E2,3.8708572E0,7.7342615E0,1.4316177E0,1.3693774E2,3.3811485E1,2.8014404E1,1.9324188E1,1.9990025E0,0E0,1.3896813E1,1.0920486E0,6.0122528E1,5.232422E0,9.528199E0,1.1071936E2,4.5508575E-1,6.948139E0,9.745159E-1,7.0445437E0,1.0107803E0,1.8983517E0,3.3112183E1,2.2293468E1,1.0504332E1,7.348674E0,0E0,1.5383179E1,2.3883348E1,4.576294E0,1.8389893E-1,3.4422307E0,4.231057E0,1.8098109E0,8.390498E-1,2.6955414E-1,2.9668465E1,1.5135779E1,3.8662395E0,1.1221008E0,0E0,0E0,0E0,0E0,0E0,0E0,0E0,0E0,0E0,0E0,0E0,0E0,0E0,0E0,0E0,0E0,0E0,0E0,0E0,0E0,0E0,0E0,0E0,0E0,0E0,0E0,0E0,0E0,0E0,0E0,0E0,0E0,0E0,0E0,0E0,0E0,0E0,0E0,0E0,0E0,0E0,0E0,0E0,0E0,0E0,0E0,0E0,0E0,0E0,0E0],"parents":[2147483647,0,0,1,1,2,2,3,3,4,4,5,5,6,6,7,7,8,8,9,9,10,10,11,11,12,12,13,13,15,15,16,16,17,17,18,18,19,19,20,20,21,21,22,22,23,23,25,25,26,26,27,27,28,28,29,29,30,30,31,31,32,32,33,33,34,34,35,35,36,36,37,37,38,38,39,39,40,40,42,42,43,43,44,44,45,45,46,46,47,47,48,48,49,49,50,50,51,51,52,52,53,53,54,54],"right_children":[2,4,6,8,10,12,14,16,18,20,22,24,26,28,-1,30,32,34,36,38,40,42,44,46,-1,48,50,52,54,56,58,60,62,64,66,68,70,72,74,76,78,-1,80,82,84,86,88,90,92,94,96,98,100,102,104,-1,-1,-1,-1,-1,-1,-1,-1,-1,-1,-1,-1,-1,-1,-1,-1,-1,-1,-1,-1,-1,-1,-1,-1,-1,-1,-1,-1,-1,-1,-1,-1,-1,-1,-1,-1,-1,-1,-1,-1,-1,-1,-1,-1,-1,-1,-1,-1,-1,-1],"split_conditions":[3.688134E1,1.749768E2,2.201149E2,1E0,2.049797E2,1.976288E2,1E0,1E0,4.0655556E0,1E0,1E0,4.204904E1,4.901677E1,1E0,-3.8155472E-1,1.250073E2,1.5244408E2,1.5496176E2,1.699671E2,1E0,1E0,1E0,2.301344E2,1E0,-4.03645E-1,1E0,1E0,1E0,4.551779E1,1E0,1E0,1E0,2.068518E0,1E0,1.599512E2,7.349621E0,1E0,1E0,1E0,1.6336493E1,6.631092E0,1.0087048E0,2.2011852E2,1E0,1.314021E1,1E0,1E0,1E0,1E0,2.1015628E2,5.762165E1,6.347674E1,2.526378E2,1E0,1E0,-1.890983E-1,1.0504167E-1,5.701398E-1,1.0149721E-1,-4.0675247E-1,-2.9260668E-1,1.2773935E-1,-2.799536E-1,-3.516354E-1,-7.912596E-2,5.3853285E-1,-1.09050475E-1,-2.8583476E-1,-3.9801535E-1,-2.7983513E-1,6.8464107E-3,9.5632213E-1,5.754548E-1,2.6153398E-1,-2.3925991E-1,4.403971E-1,-1.935579E-1,3.0484281E-2,-3.462382E-1,3.1267005E-1,7.7918696E-1,6.898008E-1,4.195375E-3,8.6691016E-1,3.7850526E-1,-1.19075045E-1,-3.8300347E-1,-2.2920233E-1,2.3956029E-1,5.615261E-1,-5.9412222E-2,5.169335E-2,-2.7388027E-1,-2.0577295E-1,4.389028E-2,-2.540137E-1,-3.631889E-1,6.826769E-1,1.029127E-1,-2.0076878E-1,1.7182085E-1,3.8904658E-1,-2.088985E-1,-1.1877632E-1,-3.5072485E-1],"split_indices":[0,1,1,4,1,1,5,5,0,4,4,0,0,4,0,1,1,1,1,5,7,5,1,2,0,7,9,7,0,3,7,3,0,2,1,0,2,7,7,0,0,0,1,7,0,9,3,4,2,1,0,0,1,7,9,0,0,0,0,0,0,0,0,0,0,0,0,0,0,0,0,0,0,0,0,0,0,0,0,0,0,0,0,0,0,0,0,0,0,0,0,0,0,0,0,0,0,0,0,0,0,0,0,0,0],"split_type":[0,0,0,0,0,0,0,0,0,0,0,0,0,0,0,0,0,0,0,0,0,0,0,0,0,0,0,0,0,0,0,0,0,0,0,0,0,0,0,0,0,0,0,0,0,0,0,0,0,0,0,0,0,0,0,0,0,0,0,0,0,0,0,0,0,0,0,0,0,0,0,0,0,0,0,0,0,0,0,0,0,0,0,0,0,0,0,0,0,0,0,0,0,0,0,0,0,0,0,0,0,0,0,0,0],"sum_hessian":[1.6109974E3,8.057001E2,8.0529736E2,4.6034253E2,3.4535757E2,6.689667E2,1.3633066E2,3.4857956E2,1.1176295E2,1.6331487E2,1.8204271E2,5.922429E2,7.6723755E1,1.0813821E2,2.8192455E1,2.4829498E2,1.0028459E2,2.2956713E1,8.880624E1,1.2747017E2,3.5844692E1,1.415664E2,4.047631E1,1.8325096E1,5.7391785E2,1.0874232E1,6.584952E1,7.450863E1,3.362957E1,5.759316E1,1.9070183E2,6.162065E1,3.866394E1,1.6714098E1,6.242615E0,7.9543E1,9.263235E0,9.746535E1,3.0004827E1,1.5707225E1,2.0137468E1,9.907634E1,4.249006E1,1.7318222E1,2.3158089E1,1.28879795E1,5.437116E0,5.034367E0,5.8398657E0,5.034367E0,6.0815155E1,3.4032322E1,4.047631E1,2.0137467E0,3.1615826E1,4.571205E1,1.1881106E1,1.15589066E2,7.5112755E1,4.228868E1,1.933197E1,3.6247442E0,3.5039196E1,1.4700352E1,2.0137467E0,1.0068734E0,5.2357416E0,2.5171835E1,5.4371162E1,6.4439898E0,2.8192456E0,4.1483185E1,5.5982162E1,1.5103101E1,1.4901727E1,1.3492104E1,2.2151215E0,6.6453643E0,1.3492104E1,1.0270108E1,3.2219948E1,8.054987E0,9.263235E0,1.8727846E1,4.430243E0,1.4096228E0,1.1478356E1,4.430243E0,1.0068734E0,4.0274935E0,1.0068734E0,1.8123721E0,4.0274935E0,3.826119E0,1.2082481E0,1.4498977E1,4.6316177E1,2.0942966E1,1.30893545E1,2.5977333E1,1.4498977E1,1.0068734E0,1.0068734E0,3.4233696E0,2.8192455E1],"tree_param":{"num_deleted":"0","num_feature":"11","num_nodes":"105","size_leaf_vector":"1"}},{"base_weights":[-1.0636675E-1,5.936457E-1,-9.3022525E-1,-8.7008625E-2,1.2193825E0,-1.1560272E0,-1.9299224E-1,1.4926866E-1,-9.623358E-1,9.537948E-1,1.682392E0,-1.1949284E0,-7.560184E-1,9.929792E-1,-3.9483735E-1,4.9789327E-1,-9.5099735E-1,-7.299131E-1,-1.164883E0,1.1626184E0,9.662131E-2,2.8709662E-1,1.7086676E0,-1.0296527E0,-3.6795133E-1,4.0310732E-1,-9.693863E-1,1.2794667E0,-5.040768E-1,-2.1236213E-1,-3.450323E-1,1.2109755E-1,1.2790482E0,-1.1051536E0,-6.216683E-1,-8.022986E-1,1.557822E-1,-3.6168927E-1,-3.7108898E-1,1.449973E0,1.18884236E-1,-6.7925936E-1,5.841951E-1,2.4865058E-1,-1.6755183E-1,5.827591E-1,1.536225E0,-1.0482191E0,-2.4996372E-2,7.262211E-1,-1.6103566E-1,-5.237763E-1,-1.1068025E0,1.5099949E0,1.3312948E-1,1.2729666E-1,-2.842534E-1,1.0626214E-1,-1.0058514E0,1.4802222E-1,-9.955042E-2,4.983115E-1,1.9301262E-1,-3.6652055E-1,-2.4219368E-1,2.53506E-2,-2.4203041E-1,-3.460487E-1,-1.5542047E-1,-2.206483E-1,5.4613143E-2,5.366111E-1,3.5055208E-1,2.2240196E-1,-1.7043753E-1,-3.9519947E-2,-3.3824348E-1,4.590233E-1,4.8563056E-2,5.407235E-1,3.8793245E-1,-3.41202E-1,-2.4146152E-1,3.6355627E-1,-1.4067836E-1,-5.559468E-2,-3.0521226E-1,-8.400594E-2,-3.3986378E-1,2.2349977E-1,5.39716E-1,2.101798E-1,-2.2357018E-1,1.8946064E-1,-1.1430545E-1,-3.424645E-1,-1.8719533E-1],"categories":[],"categories_nodes":[],"categories_segments":[],"categories_sizes":[],"default_left":[0,0,0,0,0,0,0,0,0,0,0,0,0,0,0,0,0,0,0,0,0,0,0,0,0,0,0,0,0,0,0,0,0,0,0,0,0,0,0,0,0,0,0,0,0,0,0,0,0,0,0,0,0,0,0,0,0,0,0,0,0,0,0,0,0,0,0,0,0,0,0,0,0,0,0,0,0,0,0,0,0,0,0,0,0,0,0,0,0,0,0,0,0,0,0,0,0],"id":1,"left_children":[1,3,5,7,9,11,13,15,17,19,21,23,25,27,29,31,33,35,37,39,41,43,45,47,-1,49,51,53,55,57,-1,59,61,63,65,67,-1,-1,69,71,73,75,77,-1,-1,-1,79,81,-1,83,-1,85,87,89,91,-1,-1,93,95,-1,-1,-1,-1,-1,-1,-1,-1,-1,-1,-1,-1,-1,-1,-1,-1,-1,-1,-1,-1,-1,-1,-1,-1,-1,-1,-1,-1,-1,-1,-1,-1,-1,-1,-1,-1,-1,-1],"loss_changes":[8.8724945E2,3.5439578E2,1.1741467E2,8.274123E1,5.1699158E1,7.5114746E0,4.0343018E1,1.2143431E2,3.1522903E0,4.9608276E1,5.2543945E0,1.3001709E0,1.2918051E1,1.1177301E1,1.950983E1,7.052289E1,3.1825562E0,4.238739E0,9.678154E-1,6.679028E1,2.139422E1,2.3403323E0,3.210266E0,1.40625E0,0E0,2.9957082E0,2.057724E0,5.320854E0,2.321313E0,2.9603832E1,0E0,2.7666471E1,1.787918E1,7.717743E-1,3.5435858E0,3.4298992E0,0E0,0E0,8.556898E-1,1.459256E1,2.1498354E1,5.2215614E0,1.3582863E1,0E0,0E0,0E0,3.7001038E0,8.908615E-1,0E0,4.5211077E0,0E0,1.824594E0,3.7314224E-1,2.4852638E0,2.8125625E0,0E0,0E0,2.177868E1,1.0247269E0,0E0,0E0,0E0,0E0,0E0,0E0,0E0,0E0,0E0,0E0,0E0,0E0,0E0,0E0,0E0,0E0,0E0,0E0,0E0,0E0,0E0,0E0,0E0,0E0,0E0,0E0,0E0,0E0,0E0,0E0,0E0,0E0,0E0,0E0,0E0,0E0,0E0,0E0],"parents":[2147483647,0,0,1,1,2,2,3,3,4,4,5,5,6,6,7,7,8,8,9,9,10,10,11,11,12,12,13,13,14,14,15,15,16,16,17,17,18,18,19,19,20,20,21,21,22,22,23,23,25,25,26,26,27,27,28,28,29,29,31,31,32,32,33,33,34,34,35,35,38,38,39,39,40,40,41,41,42,42,46,46,47,47,49,49,51,51,52,52,53,53,54,54,57,57,58,58],"right_children":[2,4,6,8,10,12,14,16,18,20,22,24,26,28,30,32,34,36,38,40,42,44,46,48,-1,50,52,54,56,58,-1,60,62,64,66,68,-1,-1,70,72,74,76,78,-1,-1,-1,80,82,-1,84,-1,86,88,90,92,-1,-1,94,96,-1,-1,-1,-1,-1,-1,-1,-1,-1,-1,-1,-1,-1,-1,-1,-1,-1,-1,-1,-1,-1,-1,-1,-1,-1,-1,-1,-1,-1,-1,-1,-1,-1,-1,-1,-1,-1,-1],"split_conditions":[2.3007645E1,1.724404E2,2.099931E2,1E0,2.201323E2,1.949992E2,4.717819E1,1E0,7.349621E0,1E0,1E0,4.950734E1,4.799043E1,1E0,1E0,1.499928E2,1.5244408E2,7.128376E0,1.699378E2,1E0,1.849853E2,4E0,5.799929E0,6E0,-3.6795133E-1,1E0,5.784605E1,1E0,2.9705275E1,1E0,-3.450323E-1,8.437873E0,8.944195E0,1E0,3.080084E0,1.374698E2,1.557822E-1,-3.6168927E-1,1E0,1E0,1E0,1E0,5.123883E0,2.4865058E-1,-1.6755183E-1,5.827591E-1,1E0,1E0,-2.4996372E-2,1E0,-1.6103566E-1,1E0,1.974725E2,2.226792E2,1E0,1.2729666E-1,-2.842534E-1,1E0,2.52624E2,1.4802222E-1,-9.955042E-2,4.983115E-1,1.9301262E-1,-3.6652055E-1,-2.4219368E-1,2.53506E-2,-2.4203041E-1,-3.460487E-1,-1.5542047E-1,-2.206483E-1,5.4613143E-2,5.366111E-1,3.5055208E-1,2.2240196E-1,-1.7043753E-1,-3.9519947E-2,-3.3824348E-1,4.590233E-1,4.8563056E-2,5.407235E-1,3.8793245E-1,-3.41202E-1,-2.4146152E-1,3.6355627E-1,-1.4067836E-1,-5.559468E-2,-3.0521226E-1,-8.400594E-2,-3.3986378E-1,2.2349977E-1,5.39716E-1,2.101798E-1,-2.2357018E-1,1.8946064E-1,-1.1430545E-1,-3.424645E-1,-1.8719533E-1],"split_indices":[0,1,1,4,1,1,0,5,0,4,3,0,0,5,5,1,1,0,1,5,1,8,0,8,0,5,0,4,0,4,0,0,0,3,0,1,0,0,2,7,7,7,0,0,0,0,7,2,0,4,0,5,1,1,7,0,0,7,1,0,0,0,0,0,0,0,0,0,0,0,0,0,0,0,0,0,0,0,0,0,0,0,0,0,0,0,0,0,0,0,0,0,0,0,0,0,0],"split_type":[0,0,0,0,0,0,0,0,0,0,0,0,0,0,0,0,0,0,0,0,0,0,0,0,0,0,0,0,0,0,0,0,0,0,0,0,0,0,0,0,0,0,0,0,0,0,0,0,0,0,0,0,0,0,0,0,0,0,0,0,0,0,0,0,0,0,0,0,0,0,0,0,0,0,0,0,0,0,0,0,0,0,0,0,0,0,0,0,0,0,0,0,0,0,0,0,0],"sum_hessian":[1.5365065E3,8.3084076E2,7.056657E2,3.983695E2,4.3247128E2,5.39774E2,1.6589168E2,3.1434717E2,8.402233E1,2.7677173E2,1.5569955E2,4.9012192E2,4.9652092E1,2.3557358E1,1.4233432E2,2.3912633E2,7.5220856E1,4.1269398E1,4.2752937E1,2.2226695E2,5.450477E1,3.0983205E0,1.5260123E2,8.400899E1,4.0611295E2,7.58067E0,4.2071423E1,1.9895378E1,3.6619787E0,1.1566946E2,2.6664862E1,1.6209409E2,7.7032234E1,4.9632515E1,2.5588343E1,3.934713E1,1.9222682E0,4.0171963E1,2.5809748E0,1.7397891E2,4.8288036E1,2.0881964E1,3.3622807E1,1.9005529E0,1.1977676E0,6.0409935E1,9.21913E1,8.228692E1,1.7220713E0,5.8104916E0,1.7701784E0,1.1050086E1,3.1021336E1,1.630018E1,3.595198E0,1.197638E0,2.4643407E0,8.314771E1,3.252174E1,8.8915924E1,7.317816E1,4.7109833E1,2.9922405E1,3.3441013E1,1.6191504E1,5.427079E0,2.0161264E1,1.6232199E1,2.311493E1,1.3571755E0,1.2237995E0,7.652723E1,9.745169E1,2.5292774E1,2.2995264E1,9.982115E0,1.0899848E1,9.568598E0,2.4054207E1,4.094605E1,5.124525E1,5.7540268E1,2.4746649E1,4.121711E0,1.6887808E0,7.3711305E0,3.678955E0,1.3074058E0,2.971393E1,5.4511056E0,1.0849075E1,2.307081E0,1.288117E0,3.987146E1,4.3276257E1,2.2527262E1,9.994478E0],"tree_param":{"num_deleted":"0","num_feature":"11","num_nodes":"97","size_leaf_vector":"1"}},{"base_weights":[-1.0191228E-1,3.884369E-1,-8.751262E-1,-1.5798038E-1,8.76232E-1,-1.0335466E0,-1.2033877E-2,-6.167487E-1,2.4986067E-1,4.6343648E-1,1.2522694E0,-1.1160376E0,-6.733984E-1,3.9973217E-1,-5.1546943E-1,-8.771293E-1,-3.4871292E-1,4.5241836E-1,-6.338056E-1,6.7731476E-1,-4.5202756E-1,1.3856872E0,9.316452E-1,-9.47324E-1,-3.4018576E-1,-3.640253E-1,-9.5034367E-1,5.944767E-1,-7.507698E-1,-1.2608518E-1,-7.6284194E-1,-7.1714354E-1,-1.0582584E0,6.7391925E-2,-7.5071615E-1,7.370026E-1,-5.3726393E-1,-1.9411491E-1,-3.086895E-1,9.395655E-1,-3.6568493E-1,2.616297E-1,-6.462047E-1,1.4518441E0,1.136694E0,1.1721227E0,8.268691E-2,-9.635296E-1,-5.8101278E-2,5.6371003E-1,-5.3163445E-1,-5.149976E-1,-2.996329E-1,8.665774E-1,-3.3548355E-1,-2.165675E-1,-2.8522915E-1,-5.3114235E-1,7.3556185E-1,1.0655302E-1,-8.9670354E-1,-2.6213908E-1,1.0044327E-1,-1.5211478E-1,-3.433435E-1,7.925729E-2,-2.922102E-1,-2.3750816E-1,9.57276E-2,2.6621738E-1,-6.989648E-2,3.1392194E-2,-2.192656E-1,-1.13261975E-1,2.1913472E-1,3.10722E-1,-7.597071E-2,-2.3661655E-1,2.3943746E-2,2.3326142E-1,-1.06205545E-1,-2.9069358E-1,-1.16859175E-1,1.9295128E-1,4.3902567E-1,4.236949E-1,2.4011858E-1,4.1959646E-1,1.449345E-1,-2.7929807E-2,2.36838E-1,-2.9940388E-1,-1.2798387E-1,-1.0353686E-1,2.609075E-1,-9.907404E-2,-3.213055E-1,8.401406E-2,-2.1254699E-1,1.373848E-1,3.8683507E-1,7.264197E-2,-2.1485966E-1,-1.8436046E-1,7.635032E-2,-1.3865064E-2,-2.0444913E-1,2.675243E-1,2.1060757E-2,-2.0616823E-1,-3.1899494E-1],"categories":[],"categories_nodes":[],"categories_segments":[],"categories_sizes":[],"default_left":[0,0,0,0,0,0,0,0,0,0,0,0,0,0,0,0,0,0,0,0,0,0,0,0,0,0,0,0,0,0,0,0,0,0,0,0,0,0,0,0,0,0,0,0,0,0,0,0,0,0,0,0,0,0,0,0,0,0,0,0,0,0,0,0,0,0,0,0,0,0,0,0,0,0,0,0,0,0,0,0,0,0,0,0,0,0,0,0,0,0,0,0,0,0,0,0,0,0,0,0,0,0,0,0,0,0,0,0,0,0,0],"id":2,"left_children":[1,3,5,7,9,11,13,15,17,19,21,23,25,27,29,31,33,35,37,39,41,43,45,47,-1,49,51,53,55,57,59,61,63,65,67,69,71,73,-1,75,77,79,81,83,85,87,89,91,-1,93,95,97,-1,99,101,103,-1,105,107,-1,109,-1,-1,-1,-1,-1,-1,-1,-1,-1,-1,-1,-1,-1,-1,-1,-1,-1,-1,-1,-1,-1,-1,-1,-1,-1,-1,-1,-1,-1,-1,-1,-1,-1,-1,-1,-1,-1,-1,-1,-1,-1,-1,-1,-1,-1,-1,-1,-1,-1,-1],"loss_changes":[5.280955E2,2.2735779E2,7.3888824E1,7.5543396E1,6.935736E1,1.2815186E1,1.7791603E1,1.2948349E1,3.8593815E1,4.2670235E1,8.769562E0,4.4158936E-2,7.1616135E0,1.1027924E1,3.6223087E0,2.013466E0,1.5981975E1,4.959659E1,6.8067436E0,4.84271E1,5.930479E0,1.0516357E0,1.4634956E1,3.2141495E-1,0E0,6.9875617E0,4.4740295E-1,1.0652597E1,5.7174826E-1,6.0431376E0,3.8218784E0,9.175394E0,1.4522781E0,1.00370035E1,2.3798027E0,2.0059898E1,4.9972095E0,3.7217703E0,0E0,1.640879E1,6.855045E0,3.3258219E0,2.3541546E0,2.3806763E-1,2.4882088E0,8.089226E0,2.1861198E0,3.235016E-1,0E0,2.2652974E0,3.6592417E0,1.2185076E0,0E0,4.931917E0,2.3703706E0,7.7087414E-1,0E0,8.140671E-1,5.191541E-1,0E0,8.810043E-3,0E0,0E0,0E0,0E0,0E0,0E0,0E0,0E0,0E0,0E0,0E0,0E0,0E0,0E0,0E0,0E0,0E0,0E0,0E0,0E0,0E0,0E0,0E0,0E0,0E0,0E0,0E0,0E0,0E0,0E0,0E0,0E0,0E0,0E0,0E0,0E0,0E0,0E0,0E0,0E0,0E0,0E0,0E0,0E0,0E0,0E0,0E0,0E0,0E0,0E0],"parents":[2147483647,0,0,1,1,2,2,3,3,4,4,5,5,6,6,7,7,8,8,9,9,10,10,11,11,12,12,13,13,14,14,15,15,16,16,17,17,18,18,19,19,20,20,21,21,22,22,23,23,25,25,26,26,27,27,28,28,29,29,30,30,31,31,32,32,33,33,34,34,35,35,36,36,37,37,39,39,40,40,41,41,42,42,43,43,44,44,45,45,46,46,47,47,49,49,50,50,51,51,53,53,54,54,55,55,57,57,58,58,60,60],"right_children":[2,4,6,8,10,12,14,16,18,20,22,24,26,28,30,32,34,36,38,40,42,44,46,48,-1,50,52,54,56,58,60,62,64,66,68,70,72,74,-1,76,78,80,82,84,86,88,90,92,-1,94,96,98,-1,100,102,104,-1,106,108,-1,110,-1,-1,-1,-1,-1,-1,-1,-1,-1,-1,-1,-1,-1,-1,-1,-1,-1,-1,-1,-1,-1,-1,-1,-1,-1,-1,-1,-1,-1,-1,-1,-1,-1,-1,-1,-1,-1,-1,-1,-1,-1,-1,-1,-1,-1,-1,-1,-1,-1,-1],"split_conditions":[4.293116E1,1E0,2.301344E2,1E0,1E0,2.001185E2,6.226072E1,1E0,1E0,1E0,1.196096E1,4.950734E1,1E0,1E0,1E0,1E0,8.437873E0,1E0,7.349621E0,1E0,4.0655556E0,1E0,1E0,6E0,-3.4018576E-1,4.950734E1,4.901677E1,1E0,2.4261063E2,2.52624E2,1E0,1.299778E2,2.8719995E0,1E0,6E0,1.6640371E1,4.0655556E0,1.876094E2,-3.086895E-1,1.904207E1,1E0,1E0,1.674564E2,1.1411324E0,5.7018633E0,1E0,2.551198E2,4.901677E1,-5.8101278E-2,3E0,1E0,1E0,-2.996329E-1,4E0,1E0,4E0,-2.8522915E-1,6.469309E1,1E0,1.0655302E-1,4E0,-2.6213908E-1,1.0044327E-1,-1.5211478E-1,-3.433435E-1,7.925729E-2,-2.922102E-1,-2.3750816E-1,9.57276E-2,2.6621738E-1,-6.989648E-2,3.1392194E-2,-2.192656E-1,-1.13261975E-1,2.1913472E-1,3.10722E-1,-7.597071E-2,-2.3661655E-1,2.3943746E-2,2.3326142E-1,-1.06205545E-1,-2.9069358E-1,-1.16859175E-1,1.9295128E-1,4.3902567E-1,4.236949E-1,2.4011858E-1,4.1959646E-1,1.449345E-1,-2.7929807E-2,2.36838E-1,-2.9940388E-1,-1.2798387E-1,-1.0353686E-1,2.609075E-1,-9.907404E-2,-3.213055E-1,8.401406E-2,-2.1254699E-1,1.373848E-1,3.8683507E-1,7.264197E-2,-2.1485966E-1,-1.8436046E-1,7.635032E-2,-1.3865064E-2,-2.0444913E-1,2.675243E-1,2.1060757E-2,-2.0616823E-1,-3.1899494E-1],"split_indices":[0,2,1,3,3,1,0,6,4,4,0,0,7,5,7,7,0,5,0,5,0,4,5,8,0,0,0,4,1,1,9,1,0,5,8,0,0,1,0,0,6,7,1,0,0,4,1,0,0,8,5,2,0,8,7,8,0,0,10,0,8,0,0,0,0,0,0,0,0,0,0,0,0,0,0,0,0,0,0,0,0,0,0,0,0,0,0,0,0,0,0,0,0,0,0,0,0,0,0,0,0,0,0,0,0,0,0,0,0,0,0],"split_type":[0,0,0,0,0,0,0,0,0,0,0,0,0,0,0,0,0,0,0,0,0,0,0,0,0,0,0,0,0,0,0,0,0,0,0,0,0,0,0,0,0,0,0,0,0,0,0,0,0,0,0,0,0,0,0,0,0,0,0,0,0,0,0,0,0,0,0,0,0,0,0,0,0,0,0,0,0,0,0,0,0,0,0,0,0,0,0,0,0,0,0,0,0,0,0,0,0,0,0,0,0,0,0,0,0,0,0,0,0,0,0],"sum_hessian":[1.3909633E3,8.514786E2,5.394847E2,4.0192603E2,4.4955255E2,4.556523E2,8.3832375E1,1.8891214E2,2.1301389E2,2.1536632E2,2.3418622E2,3.690284E2,8.662388E1,4.6227955E1,3.7604416E1,9.467177E1,9.424038E1,1.7368834E2,3.9325546E1,1.7479047E2,4.0575855E1,1.630261E2,7.1160126E1,4.0595795E1,3.2843262E2,4.2009678E1,4.4614197E1,3.9949097E1,6.2788596E0,1.5195374E1,2.2409042E1,5.2903248E1,4.176852E1,4.671699E1,4.7523388E1,1.350965E2,3.859184E1,1.9319798E1,2.0005747E1,1.3975084E2,3.503963E1,8.604488E0,3.1971365E1,1.2498666E2,3.8039433E1,5.5155903E1,1.6004225E1,3.9468636E1,1.1271611E0,6.0666823E0,3.5942997E1,5.6311135E0,3.8983086E1,3.0958874E1,8.990222E0,2.2777226E0,4.0011373E0,1.0597228E1,4.5981455E0,2.219378E0,2.0189665E1,4.6193615E1,6.709633E0,6.580413E0,3.5188107E1,3.9919662E1,6.7973304E0,4.602059E1,1.5027966E0,1.1703622E2,1.8060284E1,9.049611E0,2.9542229E1,1.661516E1,2.7046387E0,1.2944545E2,1.0305389E1,1.7577705E1,1.7461926E1,4.538392E0,4.066096E0,1.2932857E1,1.903851E1,2.5619578E0,1.224247E2,1.914723E1,1.8892202E1,4.0733562E1,1.4422342E1,1.3511871E1,2.4923527E0,3.6279797E1,3.1888392E0,1.4958267E0,4.5708556E0,2.7345413E1,8.597584E0,1.0146539E0,4.6164594E0,1.6803934E1,1.4154939E1,3.7161083E0,5.2741137E0,1.0695728E0,1.2081498E0,2.8175216E0,7.779707E0,3.4484177E0,1.1497278E0,1.121463E1,8.975035E0],"tree_param":{"num_deleted":"0","num_feature":"11","num_nodes":"111","size_leaf_vector":"1"}},{"base_weights":[-9.4193056E-2,3.220511E-1,-7.3214614E-1,1.0247077E-2,8.4208465E-1,-1.0195464E0,-2.0419605E-1,1.5920295E-1,-7.135392E-1,9.591878E-1,3.6395097E-1,-7.9844993E-1,-1.0692035E0,2.1561714E-1,-4.8187536E-1,3.4195894E-1,-6.33971E-1,-5.153936E-1,-3.0655858E-1,5.732194E-1,1.0500456E0,7.966111E-1,-1.0324821E-2,-1.0751225E0,-6.3161236E-1,-3.2979092E-1,-8.853436E-1,4.0035656E-1,-6.906691E-1,-1.9078405E-1,-7.470361E-1,2.5751108E-2,6.488215E-1,-9.7163403E-1,-3.6627743E-1,-6.0627455E-1,4.9955142E-1,7.036903E-1,9.416557E-2,1.1357884E0,7.588425E-1,-1.013334E-1,9.025297E-1,2.5422E-1,-8.6806613E-1,-3.356205E-1,-4.576966E-2,-3.186217E-1,-9.745144E-1,-6.60618E-1,-1.0361857E0,6.517741E-1,-4.5694768E-1,5.6362808E-2,-8.168965E-1,-4.8859435E-1,3.8837638E-1,1.8147206E-1,-8.620599E-1,6.70864E-2,-1.7875312E-1,3.4140837E-1,6.826818E-2,-2.9885864E-1,-7.250431E-2,8.369504E-3,-2.339552E-1,-2.2522227E-1,-8.094844E-2,2.7764478E-1,-4.7817502E-2,2.6917467E-1,3.0613745E-2,1.7379755E-1,-5.2671637E-2,3.8145632E-1,2.4040347E-1,3.2659328E-1,1.3162349E-1,1.9201475E-1,3.951823E-1,-7.368408E-2,1.5944332E-1,-3.261389E-1,6.413557E-3,-1.9889101E-2,-2.927673E-1,-1.17695116E-1,-3.1818148E-1,-2.2705066E-1,-3.1520713E-2,-1.1085246E-1,-3.227146E-1,2.9424298E-1,9.511168E-2,-2.182962E-1,8.773778E-2,-2.9715407E-1,-1.3065161E-1,-1.0660277E-1,-2.9317257E-1,2.1984383E-1,-1.6321032E-1,-2.4470541E-1,2.1239926E-1,-2.715427E-1,-1.243449E-1],"categories":[],"categories_nodes":[],"categories_segments":[],"categories_sizes":[],"default_left":[0,0,0,0,0,0,0,0,0,0,0,0,0,0,0,0,0,0,0,0,0,0,0,0,0,0,0,0,0,0,0,0,0,0,0,0,0,0,0,0,0,0,0,0,0,0,0,0,0,0,0,0,0,0,0,0,0,0,0,0,0,0,0,0,0,0,0,0,0,0,0,0,0,0,0,0,0,0,0,0,0,0,0,0,0,0,0,0,0,0,0,0,0,0,0,0,0,0,0,0,0,0,0,0,0,0,0],"id":3,"left_children":[1,3,5,7,9,11,13,15,17,19,21,23,25,27,29,31,33,35,-1,37,39,41,43,45,47,-1,49,51,53,55,57,59,61,63,65,67,69,71,73,75,77,-1,79,81,83,-1,-1,85,87,89,91,93,95,-1,97,99,101,103,105,-1,-1,-1,-1,-1,-1,-1,-1,-1,-1,-1,-1,-1,-1,-1,-1,-1,-1,-1,-1,-1,-1,-1,-1,-1,-1,-1,-1,-1,-1,-1,-1,-1,-1,-1,-1,-1,-1,-1,-1,-1,-1,-1,-1,-1,-1,-1,-1],"loss_changes":[3.3057626E2,1.22172844E2,7.4368195E1,5.1009796E1,1.546463E1,2.6376343E0,2.0445591E1,5.70874E1,4.4069023E0,7.33255E0,9.266919E0,2.1953506E0,4.4747925E-1,1.2023168E1,7.9880066E0,3.098587E1,6.3166122E0,5.023575E0,0E0,2.766037E0,3.6809692E0,3.4927769E0,7.400927E0,7.145233E-1,4.118864E0,0E0,7.1391296E-1,1.2996026E1,1.5116105E0,9.08217E0,6.007044E0,1.9615557E1,3.3148956E1,3.3363914E-1,6.995875E0,2.1025162E0,1.4818877E0,4.0379505E0,1.5221708E0,5.2702484E0,4.2095356E0,0E0,1.828228E0,3.5892773E0,1.5207224E0,0E0,0E0,3.760041E0,5.466633E-1,9.5363903E-1,2.0669365E-1,4.7517185E0,3.0422633E0,0E0,2.90071E-1,1.8985691E0,6.2003937E0,4.1814685E0,5.680733E-1,0E0,0E0,0E0,0E0,0E0,0E0,0E0,0E0,0E0,0E0,0E0,0E0,0E0,0E0,0E0,0E0,0E0,0E0,0E0,0E0,0E0,0E0,0E0,0E0,0E0,0E0,0E0,0E0,0E0,0E0,0E0,0E0,0E0,0E0,0E0,0E0,0E0,0E0,0E0,0E0,0E0,0E0,0E0,0E0,0E0,0E0,0E0,0E0],"parents":[2147483647,0,0,1,1,2,2,3,3,4,4,5,5,6,6,7,7,8,8,9,9,10,10,11,11,12,12,13,13,14,14,15,15,16,16,17,17,19,19,20,20,21,21,22,22,23,23,24,24,26,26,27,27,28,28,29,29,30,30,31,31,32,32,33,33,34,34,35,35,36,36,37,37,38,38,39,39,40,40,42,42,43,43,44,44,47,47,48,48,49,49,50,50,51,51,52,52,54,54,55,55,56,56,57,57,58,58],"right_children":[2,4,6,8,10,12,14,16,18,20,22,24,26,28,30,32,34,36,-1,38,40,42,44,46,48,-1,50,52,54,56,58,60,62,64,66,68,70,72,74,76,78,-1,80,82,84,-1,-1,86,88,90,92,94,96,-1,98,100,102,104,106,-1,-1,-1,-1,-1,-1,-1,-1,-1,-1,-1,-1,-1,-1,-1,-1,-1,-1,-1,-1,-1,-1,-1,-1,-1,-1,-1,-1,-1,-1,-1,-1,-1,-1,-1,-1,-1,-1,-1,-1,-1,-1,-1,-1,-1,-1,-1,-1],"split_conditions":[2.3007645E1,1.849853E2,2.001185E2,1E0,1.334222E1,4.950734E1,5.696287E1,1E0,1E0,1E0,1E0,1.39965E2,1.8246077E2,1E0,1E0,1.499913E2,1.499447E2,1.776508E2,-3.0655858E-1,1E0,1E0,1E0,1E0,4.866437E1,1E0,-3.2979092E-1,1E0,1E0,2.9705275E1,2.351417E2,1E0,1E0,1E0,1.956364E1,1E0,1.5496176E2,8.596064E0,1E0,1E0,1E0,5.7018633E0,-1.013334E-1,2.299931E2,2.074754E2,2.4261063E2,-3.356205E-1,-4.576966E-2,1E0,1.524884E2,1E0,1.824653E2,1E0,2.551198E2,5.6362808E-2,4E0,1E0,1E0,4E0,2.676647E2,6.70864E-2,-1.7875312E-1,3.4140837E-1,6.826818E-2,-2.9885864E-1,-7.250431E-2,8.369504E-3,-2.339552E-1,-2.2522227E-1,-8.094844E-2,2.7764478E-1,-4.7817502E-2,2.6917467E-1,3.0613745E-2,1.7379755E-1,-5.2671637E-2,3.8145632E-1,2.4040347E-1,3.2659328E-1,1.3162349E-1,1.9201475E-1,3.951823E-1,-7.368408E-2,1.5944332E-1,-3.261389E-1,6.413557E-3,-1.9889101E-2,-2.927673E-1,-1.17695116E-1,-3.1818148E-1,-2.2705066E-1,-3.1520713E-2,-1.1085246E-1,-3.227146E-1,2.9424298E-1,9.511168E-2,-2.182962E-1,8.773778E-2,-2.9715407E-1,-1.3065161E-1,-1.0660277E-1,-2.9317257E-1,2.1984383E-1,-1.6321032E-1,-2.4470541E-1,2.1239926E-1,-2.715427E-1,-1.243449E-1],"split_indices":[0,1,1,4,0,0,0,5,7,3,7,1,1,5,7,1,1,1,0,4,4,2,4,0,7,0,7,4,0,1,9,7,7,0,7,1,0,5,7,5,0,0,1,1,1,0,0,4,1,10,1,7,1,0,8,5,10,8,1,0,0,0,0,0,0,0,0,0,0,0,0,0,0,0,0,0,0,0,0,0,0,0,0,0,0,0,0,0,0,0,0,0,0,0,0,0,0,0,0,0,0,0,0,0,0,0,0],"split_type":[0,0,0,0,0,0,0,0,0,0,0,0,0,0,0,0,0,0,0,0,0,0,0,0,0,0,0,0,0,0,0,0,0,0,0,0,0,0,0,0,0,0,0,0,0,0,0,0,0,0,0,0,0,0,0,0,0,0,0,0,0,0,0,0,0,0,0,0,0,0,0,0,0,0,0,0,0,0,0,0,0,0,0,0,0,0,0,0,0,0,0,0,0,0,0,0,0,0,0,0,0,0,0,0,0,0,0],"sum_hessian":[1.243013E3,7.5251556E2,4.9049738E2,4.710819E2,2.8143365E2,3.1700055E2,1.7349681E2,3.913266E2,7.9755325E1,2.2525801E2,5.617565E1,6.1271343E1,2.5572922E2,6.9159935E1,1.04336876E2,3.1850775E2,7.2818825E1,5.0179043E1,2.9576283E1,4.4314922E1,1.8094308E2,2.5532204E1,3.0643446E1,2.1000822E1,4.027052E1,2.1547508E2,4.025414E1,5.791305E1,1.12468815E1,5.0556202E1,5.3780678E1,1.573991E2,1.6110867E2,3.1038212E1,4.1780613E1,4.6424706E1,3.7543397E0,3.4460617E1,9.854305E0,1.3754382E2,4.339926E1,1.9934386E0,2.3538765E1,2.3957947E1,6.6855E0,1.9849806E1,1.1510165E0,2.2062096E1,1.8208424E1,1.8328194E1,2.1925945E1,4.4965866E1,1.2947187E1,1.3515654E0,9.895316E0,3.3491104E1,1.7065098E1,5.8643255E0,4.7916355E1,1.1987874E2,3.7520355E1,7.3755554E1,8.735312E1,2.9674973E1,1.3632402E0,2.186944E1,1.9911173E1,3.1617228E1,1.4807475E1,2.034666E0,1.7196736E0,2.5700901E1,8.759715E0,3.1110063E0,6.743299E0,9.584404E1,4.1699783E1,2.0193054E1,2.320621E1,1.5973079E1,7.565686E0,8.588654E0,1.5369293E1,5.185976E0,1.499524E0,1.6737473E1,5.324623E0,3.0615258E0,1.5146898E1,1.5313648E1,3.0145457E0,1.806498E0,2.0119448E1,2.1702642E1,2.3263224E1,9.532731E0,3.4144566E0,5.702372E0,4.192944E0,2.767222E1,5.8188825E0,1.2618016E1,4.447081E0,1.8367068E0,4.027619E0,4.27765E1,5.139853E0],"tree_param":{"num_deleted":"0","num_feature":"11","num_nodes":"107","size_leaf_vector":"1"}},{"base_weights":[-8.527582E-2,2.2460824E-1,-7.013643E-1,-1.3925868E-1,5.5902714E-1,-9.909512E-1,-2.4613632E-1,-4.7692922E-1,1.3890775E-1,2.8287274E-1,8.4348446E-1,-7.730273E-1,-1.0178192E0,-1.2353945E-1,-9.510065E-1,-2.1650462E-1,-6.89655E-1,2.5388014E-1,-4.6096125E-1,7.761289E-1,1.18760176E-1,9.5495546E-1,5.046023E-1,-2.8656435E-1,-5.833079E-1,-3.1653783E-1,-8.050413E-1,8.27717E-2,-7.8281003E-1,-4.4833925E-2,-2.9554117E-1,-7.887304E-1,-3.2900296E-2,-7.3148745E-1,1.2598541E-1,4.0232658E-1,-3.4846696E-1,-7.142325E-2,-8.8502544E-1,9.212928E-1,1.0148431E-1,2.4177128E-1,-4.5456076E-1,3.398525E-1,5.942064E-1,9.174435E-1,5.9492912E-2,-2.4258518E-1,-2.8888312E-1,-5.665468E-1,-9.8036027E-1,-2.330981E-1,1.7563744E-1,-1.0176497E0,-4.9850565E-1,-1.3717096E-1,-3.3281362E-1,1.0360929E-1,-1.1513264E-1,-1.7163719E-1,-2.8335392E-1,9.342641E-2,-5.950142E-2,3.4850303E-2,2.233119E-1,1.4993678E-1,-1.4570194E-1,-4.9745962E-2,1.9821995E-1,-2.7624252E-1,-9.202342E-2,3.1940898E-1,9.440975E-2,2.1648246E-1,-6.329477E-2,1.1261184E-1,-1.0904414E-1,-6.4114176E-2,-2.6445836E-1,2.502133E-1,7.0649065E-2,-4.3959673E-2,2.9134962E-1,9.985881E-2,-7.974931E-2,-1.7727797E-1,5.008595E-2,-1.9906731E-1,-2.4951579E-2,-9.546449E-2,-3.0822963E-1,1.1694013E-1,-6.387582E-2,-5.8448717E-2,-3.214302E-1,-1.729994E-2,-2.2565378E-1],"categories":[],"categories_nodes":[],"categories_segments":[],"categories_sizes":[],"default_left":[0,0,0,0,0,0,0,0,0,0,0,0,0,0,0,0,0,0,0,0,0,0,0,0,0,0,0,0,0,0,0,0,0,0,0,0,0,0,0,0,0,0,0,0,0,0,0,0,0,0,0,0,0,0,0,0,0,0,0,0,0,0,0,0,0,0,0,0,0,0,0,0,0,0,0,0,0,0,0,0,0,0,0,0,0,0,0,0,0,0,0,0,0,0,0,0,0],"id":4,"left_children":[1,3,5,7,9,11,13,15,17,19,21,23,25,27,29,31,33,35,37,39,41,43,45,-1,47,-1,49,51,53,-1,-1,55,57,59,61,63,65,67,69,71,73,75,77,-1,79,81,83,85,-1,87,89,-1,91,93,95,-1,-1,-1,-1,-1,-1,-1,-1,-1,-1,-1,-1,-1,-1,-1,-1,-1,-1,-1,-1,-1,-1,-1,-1,-1,-1,-1,-1,-1,-1,-1,-1,-1,-1,-1,-1,-1,-1,-1,-1,-1,-1],"loss_changes":[2.1251686E2,9.022492E1,4.886055E1,3.346672E1,3.0101776E1,5.4429626E-1,1.2512526E1,8.761253E0,1.3617649E1,1.5893933E1,6.686142E0,4.489727E-1,7.3202515E-1,1.7155136E1,4.411087E-1,7.724753E0,3.0971756E0,1.4886006E1,5.1962433E0,4.7171135E0,1.0643591E1,8.417831E0,8.96579E0,0E0,1.9431758E0,0E0,8.6364174E-1,7.849768E0,1.4986382E0,0E0,0E0,1.3929434E0,7.683843E0,2.3086395E0,3.7147635E-1,1.2908981E1,4.1000166E0,1.3316789E0,3.116703E-2,3.1704903E0,2.0553718E0,1.0133368E1,2.5606346E0,0E0,4.009573E0,1.5940132E0,2.284276E0,1.5545673E0,0E0,7.301564E-1,2.4003601E-1,0E0,7.406226E0,4.7690773E-1,1.695693E0,0E0,0E0,0E0,0E0,0E0,0E0,0E0,0E0,0E0,0E0,0E0,0E0,0E0,0E0,0E0,0E0,0E0,0E0,0E0,0E0,0E0,0E0,0E0,0E0,0E0,0E0,0E0,0E0,0E0,0E0,0E0,0E0,0E0,0E0,0E0,0E0,0E0,0E0,0E0,0E0,0E0,0E0],"parents":[2147483647,0,0,1,1,2,2,3,3,4,4,5,5,6,6,7,7,8,8,9,9,10,10,11,11,12,12,13,13,14,14,15,15,16,16,17,17,18,18,19,19,20,20,21,21,22,22,24,24,26,26,27,27,28,28,31,31,32,32,33,33,34,34,35,35,36,36,37,37,38,38,39,39,40,40,41,41,42,42,44,44,45,45,46,46,47,47,49,49,50,50,52,52,53,53,54,54],"right_children":[2,4,6,8,10,12,14,16,18,20,22,24,26,28,30,32,34,36,38,40,42,44,46,-1,48,-1,50,52,54,-1,-1,56,58,60,62,64,66,68,70,72,74,76,78,-1,80,82,84,86,-1,88,90,-1,92,94,96,-1,-1,-1,-1,-1,-1,-1,-1,-1,-1,-1,-1,-1,-1,-1,-1,-1,-1,-1,-1,-1,-1,-1,-1,-1,-1,-1,-1,-1,-1,-1,-1,-1,-1,-1,-1,-1,-1,-1,-1,-1,-1],"split_conditions":[4.293116E1,1E0,2.001185E2,1E0,1E0,4.950734E1,1E0,7.128376E0,1E0,4.164919E0,1E0,1.499741E2,1.8246077E2,1E0,2.024433E2,1.17472E2,1.824833E2,1E0,7.349621E0,1E0,1E0,1E0,8.154668E0,-2.8656435E-1,1E0,-3.1653783E-1,1E0,1E0,2.326228E2,-4.4833925E-2,-2.9554117E-1,4.355677E0,1E0,1E0,1.213947E1,1E0,2.411713E0,6.981941E0,2.001185E2,1E0,2.068518E0,1E0,1.2736226E1,3.398525E-1,1E0,1.1411324E0,1E0,1E0,-2.8888312E-1,1E0,1.824653E2,-2.330981E-1,6.347674E1,2.026362E2,1E0,-1.3717096E-1,-3.3281362E-1,1.0360929E-1,-1.1513264E-1,-1.7163719E-1,-2.8335392E-1,9.342641E-2,-5.950142E-2,3.4850303E-2,2.233119E-1,1.4993678E-1,-1.4570194E-1,-4.9745962E-2,1.9821995E-1,-2.7624252E-1,-9.202342E-2,3.1940898E-1,9.440975E-2,2.1648246E-1,-6.329477E-2,1.1261184E-1,-1.0904414E-1,-6.4114176E-2,-2.6445836E-1,2.502133E-1,7.0649065E-2,-4.3959673E-2,2.9134962E-1,9.985881E-2,-7.974931E-2,-1.7727797E-1,5.008595E-2,-1.9906731E-1,-2.4951579E-2,-9.546449E-2,-3.0822963E-1,1.1694013E-1,-6.387582E-2,-5.8448717E-2,-3.214302E-1,-1.729994E-2,-2.2565378E-1],"split_indices":[0,2,1,3,3,0,5,0,4,0,5,1,1,4,1,1,1,5,0,5,4,4,0,0,7,0,7,3,1,0,0,0,7,7,0,6,0,0,1,4,0,5,0,0,7,0,7,3,0,10,1,0,0,1,7,0,0,0,0,0,0,0,0,0,0,0,0,0,0,0,0,0,0,0,0,0,0,0,0,0,0,0,0,0,0,0,0,0,0,0,0,0,0,0,0,0,0],"split_type":[0,0,0,0,0,0,0,0,0,0,0,0,0,0,0,0,0,0,0,0,0,0,0,0,0,0,0,0,0,0,0,0,0,0,0,0,0,0,0,0,0,0,0,0,0,0,0,0,0,0,0,0,0,0,0,0,0,0,0,0,0,0,0,0,0,0,0,0,0,0,0,0,0,0,0,0,0,0,0,0,0,0,0,0,0,0,0,0,0,0,0,0,0,0,0,0,0],"sum_hessian":[1.1113182E3,7.398295E2,3.714887E2,3.5459424E2,3.852353E2,2.2633318E2,1.4515553E2,1.5984335E2,1.9475089E2,1.9648239E2,1.887529E2,2.8109646E1,1.9822353E2,1.24650536E2,2.0504993E1,7.2771866E1,8.7071495E1,1.639119E2,3.0838991E1,4.8120953E1,1.4836143E2,1.4066498E2,4.8087925E1,1.2281178E1,1.5828467E1,1.6528491E2,3.2938618E1,9.560615E1,2.9044394E1,1.0571241E0,1.9447868E1,1.6876945E1,5.5894917E1,8.292179E1,4.1497073E0,1.3176974E2,3.2142147E1,1.6682844E1,1.4156146E1,3.9299294E1,8.82166E0,1.2262866E2,2.5732773E1,9.277642E1,4.7888554E1,2.4397738E1,2.3690186E1,9.205519E0,6.622949E0,1.5747748E1,1.719087E1,8.601868E0,8.700428E1,1.449329E1,1.4551105E1,9.49095E0,7.3859954E0,2.6905197E1,2.8989721E1,4.954392E1,3.337787E1,2.6654725E0,1.4842347E0,7.247564E1,5.9294106E1,4.107227E0,2.8034918E1,1.5462756E1,1.2200884E0,1.277343E1,1.382716E0,3.1174234E1,8.125057E0,2.5170047E0,6.304655E0,1.0076573E2,2.1862925E1,1.7411627E1,8.321146E0,2.7905468E1,1.9983084E1,1.0896342E0,2.3308104E1,1.2860409E1,1.0829778E1,4.735085E0,4.4704337E0,1.2805075E1,2.9426734E0,1.6560398E0,1.553483E1,5.6087193E1,3.0917084E1,1.1728498E0,1.332044E1,5.7631354E0,8.78797E0],"tree_param":{"num_deleted":"0","num_feature":"11","num_nodes":"97","size_leaf_vector":"1"}},{"base_weights":[-7.59937E-2,2.5729823E-1,-5.0710154E-1,-1.7577065E-2,5.2657574E-1,-7.971045E-1,-1.0049879E-1,-2.9540262E-1,2.0626438E-1,3.1594464E-1,7.7244145E-1,-4.6272755E-1,-9.4802684E-1,2.6724213E-1,-2.864157E-1,-1.8339166E-1,-1.000669E0,2.9932803E-1,-2.961078E-1,4.0332457E-1,-9.891833E-2,6.129649E-1,9.48418E-1,-6.802953E-1,-1.6346806E-1,-7.6303655E-1,-9.95205E-1,6.0960805E-1,-3.0921694E-2,-1.8982695E-1,-9.073989E-1,-1.4510755E-2,-2.7017248E-1,-4.2343214E-2,-3.1450224E-1,-1.7469795E-2,4.9352956E-1,-4.3547876E-2,-7.7792376E-1,5.0805193E-1,-6.339563E-2,1.2838559E-1,-3.8381088E-1,7.6988226E-1,1.3958092E-1,1.0014465E0,5.4507357E-1,-1.9781967E-1,-7.755474E-1,2.2896363E-1,-5.2812463E-1,-2.902186E-1,-5.6397104E-1,-3.1211677E-1,-7.050837E-1,2.5598827E-1,9.7326213E-1,1.4014924E-1,-2.5988266E-1,-2.041908E-2,-7.637276E-1,-4.5377147E-1,-3.0319923E-1,-2.491804E-1,1.955663E-2,2.668226E-1,-4.1842677E-2,2.4319385E-1,8.168889E-2,-4.507149E-2,2.559718E-1,-2.5967097E-1,-2.7084474E-2,3.99719E-1,1.2571344E-1,-2.6537344E-1,4.1123927E-2,-1.4171946E-1,1.3113084E-1,-2.0605236E-1,-1.2367661E-2,3.0018902E-1,1.1503988E-1,1.1811746E-1,-2.5663337E-1,1.09966025E-1,3.0698442E-1,-1.3362389E-2,2.4122989E-1,2.907901E-2,-2.4776857E-1,-2.7596307E-1,-1.7471883E-1,1.417981E-1,-1.5731834E-1,4.4227555E-2,-2.0477222E-1,-5.9096064E-2,-2.9211894E-1,-1.2482218E-1,-2.6986748E-1,-2.429866E-2,2.0353878E-1,3.3708295E-1,8.042747E-2,-3.8107872E-2,2.1118823E-1,6.7521766E-2,-9.039245E-2,-2.8497863E-1,-6.0064375E-2,-2.3689686E-1,8.57502E-2],"categories":[],"categories_nodes":[],"categories_segments":[],"categories_sizes":[],"default_left":[0,0,0,0,0,0,0,0,0,0,0,0,0,0,0,0,0,0,0,0,0,0,0,0,0,0,0,0,0,0,0,0,0,0,0,0,0,0,0,0,0,0,0,0,0,0,0,0,0,0,0,0,0,0,0,0,0,0,0,0,0,0,0,0,0,0,0,0,0,0,0,0,0,0,0,0,0,0,0,0,0,0,0,0,0,0,0,0,0,0,0,0,0,0,0,0,0,0,0,0,0,0,0,0,0,0,0,0,0,0,0,0,0],"id":5,"left_children":[1,3,5,7,9,11,13,15,17,19,21,23,25,27,29,31,33,35,37,39,41,43,45,47,49,51,53,55,57,59,61,63,-1,-1,-1,65,67,69,71,73,75,77,79,81,83,85,87,89,91,93,95,-1,97,-1,99,101,103,105,-1,107,109,111,-1,-1,-1,-1,-1,-1,-1,-1,-1,-1,-1,-1,-1,-1,-1,-1,-1,-1,-1,-1,-1,-1,-1,-1,-1,-1,-1,-1,-1,-1,-1,-1,-1,-1,-1,-1,-1,-1,-1,-1,-1,-1,-1,-1,-1,-1,-1,-1,-1,-1,-1],"loss_changes":[1.4444801E2,4.1986874E1,5.1599495E1,1.7574268E1,1.4593643E1,1.2463852E1,1.2629256E1,9.7754345E0,7.407691E0,5.6952353E0,3.1093063E0,5.192896E0,7.697449E-1,6.3652673E0,7.1711864E0,1.3311552E1,5.5080414E-1,8.16518E0,3.0047166E0,6.3405247E0,1.8589122E0,5.2271385E0,7.5226974E-1,1.9998608E0,5.21686E0,1.0771732E0,1.053421E0,3.4786139E0,5.006182E0,1.0408307E1,3.0097866E-1,5.911916E0,0E0,0E0,0E0,5.805772E0,5.548046E0,1.7970307E0,4.3585014E-1,7.18392E0,4.1614866E0,3.2283509E0,1.2851508E0,4.405775E0,5.166891E0,3.519554E-1,1.4479973E0,1.7586697E0,5.455475E-1,3.5248702E0,2.0580988E0,0E0,3.2073593E0,0E0,8.325777E-1,2.3404837E0,1.176115E0,4.492914E0,0E0,5.846866E0,2.370884E0,1.4235164E0,0E0,0E0,0E0,0E0,0E0,0E0,0E0,0E0,0E0,0E0,0E0,0E0,0E0,0E0,0E0,0E0,0E0,0E0,0E0,0E0,0E0,0E0,0E0,0E0,0E0,0E0,0E0,0E0,0E0,0E0,0E0,0E0,0E0,0E0,0E0,0E0,0E0,0E0,0E0,0E0,0E0,0E0,0E0,0E0,0E0,0E0,0E0,0E0,0E0,0E0,0E0],"parents":[2147483647,0,0,1,1,2,2,3,3,4,4,5,5,6,6,7,7,8,8,9,9,10,10,11,11,12,12,13,13,14,14,15,15,16,16,17,17,18,18,19,19,20,20,21,21,22,22,23,23,24,24,25,25,26,26,27,27,28,28,29,29,30,30,31,31,35,35,36,36,37,37,38,38,39,39,40,40,41,41,42,42,43,43,44,44,45,45,46,46,47,47,48,48,49,49,50,50,52,52,54,54,55,55,56,56,57,57,59,59,60,60,61,61],"right_children":[2,4,6,8,10,12,14,16,18,20,22,24,26,28,30,32,34,36,38,40,42,44,46,48,50,52,54,56,58,60,62,64,-1,-1,-1,66,68,70,72,74,76,78,80,82,84,86,88,90,92,94,96,-1,98,-1,100,102,104,106,-1,108,110,112,-1,-1,-1,-1,-1,-1,-1,-1,-1,-1,-1,-1,-1,-1,-1,-1,-1,-1,-1,-1,-1,-1,-1,-1,-1,-1,-1,-1,-1,-1,-1,-1,-1,-1,-1,-1,-1,-1,-1,-1,-1,-1,-1,-1,-1,-1,-1,-1,-1,-1,-1],"split_conditions":[1.509343E1,1E0,1.949992E2,1E0,1E0,4.204904E1,4.950734E1,1E0,1E0,1E0,1E0,1.624827E2,5.304753E1,1E0,1E0,1E0,1.47481E0,1.499741E2,7.349621E0,1E0,1E0,1E0,1.175027E1,3E0,1E0,1.499741E2,1.8246077E2,4E0,1E0,1E0,5.647233E1,1.049629E2,-2.7017248E-1,-4.2343214E-2,-3.1450224E-1,1.9341716E0,1E0,7.128376E0,1.334222E1,1E0,1.5245552E2,1.499913E2,1.924705E2,1E0,1E0,2.126415E2,1.2736226E1,1.499483E2,1.399875E2,1E0,3E0,-2.902186E-1,1E0,-3.1211677E-1,1E0,2.299931E2,1E0,2.401149E2,-2.5988266E-1,1E0,2.52624E2,2.326707E2,-3.0319923E-1,-2.491804E-1,1.955663E-2,2.668226E-1,-4.1842677E-2,2.4319385E-1,8.168889E-2,-4.507149E-2,2.559718E-1,-2.5967097E-1,-2.7084474E-2,3.99719E-1,1.2571344E-1,-2.6537344E-1,4.1123927E-2,-1.4171946E-1,1.3113084E-1,-2.0605236E-1,-1.2367661E-2,3.0018902E-1,1.1503988E-1,1.1811746E-1,-2.5663337E-1,1.09966025E-1,3.0698442E-1,-1.3362389E-2,2.4122989E-1,2.907901E-2,-2.4776857E-1,-2.7596307E-1,-1.7471883E-1,1.417981E-1,-1.5731834E-1,4.4227555E-2,-2.0477222E-1,-5.9096064E-2,-2.9211894E-1,-1.2482218E-1,-2.6986748E-1,-2.429866E-2,2.0353878E-1,3.3708295E-1,8.042747E-2,-3.8107872E-2,2.1118823E-1,6.7521766E-2,-9.039245E-2,-2.8497863E-1,-6.0064375E-2,-2.3689686E-1,8.57502E-2],"split_indices":[0,2,1,3,3,0,0,5,4,4,6,1,0,7,5,4,0,1,0,5,7,5,0,8,7,1,1,8,4,4,0,1,0,0,0,0,7,0,0,9,1,1,1,4,10,1,0,1,1,5,8,0,7,0,7,1,5,1,0,7,1,1,0,0,0,0,0,0,0,0,0,0,0,0,0,0,0,0,0,0,0,0,0,0,0,0,0,0,0,0,0,0,0,0,0,0,0,0,0,0,0,0,0,0,0,0,0,0,0,0,0,0,0],"split_type":[0,0,0,0,0,0,0,0,0,0,0,0,0,0,0,0,0,0,0,0,0,0,0,0,0,0,0,0,0,0,0,0,0,0,0,0,0,0,0,0,0,0,0,0,0,0,0,0,0,0,0,0,0,0,0,0,0,0,0,0,0,0,0,0,0,0,0,0,0,0,0,0,0,0,0,0,0,0,0,0,0,0,0,0,0,0,0,0,0,0,0,0,0,0,0,0,0,0,0,0,0,0,0,0,0,0,0,0,0,0,0,0,0],"sum_hessian":[1.0034039E3,5.661293E2,4.372746E2,2.8061526E2,2.8551404E2,2.5467285E2,1.8260175E2,1.2506656E2,1.555487E2,1.550064E2,1.3050763E2,8.046472E1,1.7420811E2,6.1170322E1,1.2143143E2,1.09013054E2,1.6053507E1,1.3157822E2,2.3970488E1,1.2806145E2,2.694495E1,7.0815346E1,5.9692287E1,4.585439E1,3.4610336E1,3.8889973E1,1.3531815E2,2.7988289E1,3.318203E1,1.06216095E2,1.5215336E1,8.90613E1,1.995175E1,1.0517179E0,1.5001788E1,5.035118E1,8.1227036E1,1.6442162E1,7.528325E0,1.0451971E2,2.3541737E1,1.5292809E1,1.1652143E1,5.2715027E1,1.8100315E1,5.144576E1,8.246529E0,8.067468E0,3.7786922E1,1.6849527E1,1.7760809E1,1.728533E1,2.1604641E1,1.14845726E2,2.0472425E1,1.5053801E1,1.2934489E1,2.8232553E1,4.949477E0,8.2807884E1,2.340821E1,3.8216558E0,1.1393681E1,7.0856347E0,8.197567E1,5.2248178E0,4.512636E1,3.228516E1,4.8941875E1,1.5437983E1,1.0041801E0,6.4477515E0,1.0805737E0,8.824217E0,9.569549E1,3.9498901E0,1.9591848E1,5.010959E0,1.028185E1,5.6497965E0,6.0023456E0,3.201049E1,2.0704536E1,1.4899159E1,3.201155E0,2.3018603E0,4.9143898E1,2.7697823E0,5.4767466E0,6.0662894E0,2.0011787E0,1.9473312E1,1.8313608E1,1.3012752E1,3.8367758E0,3.313461E0,1.4447347E1,1.2178336E1,9.426306E0,9.497542E0,1.0974882E1,8.823821E0,6.2299795E0,1.0172293E1,2.7621965E0,1.9680962E1,8.551591E0,4.4294266E1,3.851362E1,1.7079065E1,6.3291464E0,2.5815828E0,1.240073E0],"tree_param":{"num_deleted":"0","num_feature":"11","num_nodes":"113","size_leaf_vector":"1"}},{"base_weights":[-6.6860124E-2,1.8289326E-1,-4.532938E-1,-7.682339E-2,3.7782043E-1,-7.351831E-1,-9.397675E-2,6.6637196E-2,-4.404288E-1,6.366207E-1,1.8063702E-1,-3.655993E-1,-8.8942385E-1,4.40962E-2,-4.401126E-1,-2.5505897E-1,2.7987486E-1,-8.597671E-1,-2.3652759E-1,5.095171E-1,9.9658036E-1,5.6040883E-2,6.672634E-1,-5.3961664E-1,-1.2775924E-2,-3.0562752E-1,-7.7730805E-1,6.5030015E-1,-4.055867E-2,-5.958928E-1,9.290668E-2,-8.9153373E-1,-1.3411272E-1,6.5040916E-1,-6.625465E-4,-4.7195515E-1,-3.028074E-1,3.3535337E-1,-2.889744E-1,6.359094E-1,1.5291163E-1,3.2292062E-1,6.3151807E-1,1.46069E-1,-4.2566714E-1,3.1557316E-1,4.9549034E-1,-1.3846894E-1,-6.223393E-1,1.9950436E-1,-5.3889245E-1,-6.101519E-1,-2.9022878E-1,8.7257355E-1,-1.5227252E-1,2.0011945E-1,-2.8364822E-1,-4.078777E-1,-8.005542E-1,2.6788092E-1,-1.953811E-1,-1.1491104E-1,-3.0471015E-1,-1.1895251E-2,-2.7942073E-1,2.3506668E-1,-5.2393883E-2,2.9925209E-2,-1.7184004E-1,-2.2841744E-1,-2.9114233E-3,3.256356E-1,-6.8933874E-2,-1.13960795E-1,2.4397578E-2,2.6309723E-1,5.565808E-2,8.193883E-2,-1.9356774E-1,2.678719E-1,1.5914092E-2,8.5567765E-2,-1.1706752E-1,-4.6987154E-2,-2.644209E-1,2.0447823E-1,-4.740363E-3,1.0790747E-1,-2.6527232E-1,-2.2139063E-1,-1.017007E-1,1.0694626E-1,-1.6002317E-1,-2.840336E-3,-1.9924755E-1,-5.713546E-2,-2.275107E-1,5.3894226E-2,3.5721022E-1,-3.363797E-2,1.8256205E-1,-5.2659143E-2,-2.4617411E-1,-8.7564245E-2,-2.470332E-1,-7.1986504E-2,-2.6573128E-1,1.3880846E-1,-1.1484601E-1],"categories":[],"categories_nodes":[],"categories_segments":[],"categories_sizes":[],"default_left":[0,0,0,0,0,0,0,0,0,0,0,0,0,0,0,0,0,0,0,0,0,0,0,0,0,0,0,0,0,0,0,0,0,0,0,0,0,0,0,0,0,0,0,0,0,0,0,0,0,0,0,0,0,0,0,0,0,0,0,0,0,0,0,0,0,0,0,0,0,0,0,0,0,0,0,0,0,0,0,0,0,0,0,0,0,0,0,0,0,0,0,0,0,0,0,0,0,0,0,0,0,0,0,0,0,0,0,0,0],"id":6,"left_children":[1,3,5,7,9,11,13,15,17,19,21,23,25,27,29,31,33,35,37,39,41,43,45,47,49,-1,51,53,55,57,59,61,63,65,67,69,-1,71,73,75,77,-1,79,81,83,-1,85,87,89,91,93,95,-1,97,-1,99,101,103,105,107,-1,-1,-1,-1,-1,-1,-1,-1,-1,-1,-1,-1,-1,-1,-1,-1,-1,-1,-1,-1,-1,-1,-1,-1,-1,-1,-1,-1,-1,-1,-1,-1,-1,-1,-1,-1,-1,-1,-1,-1,-1,-1,-1,-1,-1,-1,-1,-1,-1],"loss_changes":[8.8591866E1,2.8266005E1,3.6425674E1,1.2546824E1,1.6153225E1,1.1176231E1,7.6444497E0,1.1934975E1,5.612933E0,5.7813187E0,1.1017611E1,3.7449083E0,1.2621613E0,5.925928E0,3.8405447E0,5.227644E0,1.0861133E1,7.9268837E-1,1.5110493E0,4.573799E0,3.3503723E-1,6.4048285E0,1.928463E0,1.2710114E0,2.4761174E0,0E0,1.9552193E0,4.083442E0,6.0135846E0,1.0360708E0,1.6295717E0,3.0009937E-1,4.447845E0,5.082487E0,3.5306218E0,1.0585905E0,0E0,2.1245935E0,1.5026019E0,8.110851E0,2.904674E0,0E0,1.2632718E0,9.362987E0,2.717029E0,0E0,2.6294465E0,3.3935404E0,8.513069E-1,2.012724E0,4.1598117E-1,2.6754532E0,0E0,2.483182E0,0E0,6.6674843E0,2.8205228E0,7.475927E-1,5.478115E-1,1.4138764E0,0E0,0E0,0E0,0E0,0E0,0E0,0E0,0E0,0E0,0E0,0E0,0E0,0E0,0E0,0E0,0E0,0E0,0E0,0E0,0E0,0E0,0E0,0E0,0E0,0E0,0E0,0E0,0E0,0E0,0E0,0E0,0E0,0E0,0E0,0E0,0E0,0E0,0E0,0E0,0E0,0E0,0E0,0E0,0E0,0E0,0E0,0E0,0E0,0E0],"parents":[2147483647,0,0,1,1,2,2,3,3,4,4,5,5,6,6,7,7,8,8,9,9,10,10,11,11,12,12,13,13,14,14,15,15,16,16,17,17,18,18,19,19,20,20,21,21,22,22,23,23,24,24,26,26,27,27,28,28,29,29,30,30,31,31,32,32,33,33,34,34,35,35,37,37,38,38,39,39,40,40,42,42,43,43,44,44,46,46,47,47,48,48,49,49,50,50,51,51,53,53,55,55,56,56,57,57,58,58,59,59],"right_children":[2,4,6,8,10,12,14,16,18,20,22,24,26,28,30,32,34,36,38,40,42,44,46,48,50,-1,52,54,56,58,60,62,64,66,68,70,-1,72,74,76,78,-1,80,82,84,-1,86,88,90,92,94,96,-1,98,-1,100,102,104,106,108,-1,-1,-1,-1,-1,-1,-1,-1,-1,-1,-1,-1,-1,-1,-1,-1,-1,-1,-1,-1,-1,-1,-1,-1,-1,-1,-1,-1,-1,-1,-1,-1,-1,-1,-1,-1,-1,-1,-1,-1,-1,-1,-1,-1,-1,-1,-1,-1,-1],"split_conditions":[1.6640371E1,1.62447E2,1.999902E2,1E0,1E0,4.204904E1,6.366434E1,1.299483E2,1.449607E2,2.126695E2,2.326378E2,1.749755E2,1.499741E2,1E0,2.551198E2,1.049629E2,5.7018633E0,3.769989E0,1E0,1E0,1.196096E1,1E0,3.8602304E0,3E0,1.9245674E2,-3.0562752E-1,1E0,1E0,1E0,1E0,1E0,4.164919E0,1E0,1E0,1E0,2.771756E0,-3.028074E-1,1.499621E2,5E0,1E0,1.2736226E1,3.2292062E-1,1E0,1E0,8.596064E0,3.1557316E-1,1E0,2.119498E1,2.3007645E1,1E0,1.904207E1,5.304753E1,-2.9022878E-1,1E0,-1.5227252E-1,4E0,1E0,1E0,6.469309E1,1E0,-1.953811E-1,-1.1491104E-1,-3.0471015E-1,-1.1895251E-2,-2.7942073E-1,2.3506668E-1,-5.2393883E-2,2.9925209E-2,-1.7184004E-1,-2.2841744E-1,-2.9114233E-3,3.256356E-1,-6.8933874E-2,-1.13960795E-1,2.4397578E-2,2.6309723E-1,5.565808E-2,8.193883E-2,-1.9356774E-1,2.678719E-1,1.5914092E-2,8.5567765E-2,-1.1706752E-1,-4.6987154E-2,-2.644209E-1,2.0447823E-1,-4.740363E-3,1.0790747E-1,-2.6527232E-1,-2.2139063E-1,-1.017007E-1,1.0694626E-1,-1.6002317E-1,-2.840336E-3,-1.9924755E-1,-5.713546E-2,-2.275107E-1,5.3894226E-2,3.5721022E-1,-3.363797E-2,1.8256205E-1,-5.2659143E-2,-2.4617411E-1,-8.7564245E-2,-2.470332E-1,-7.1986504E-2,-2.6573128E-1,1.3880846E-1,-1.1484601E-1],"split_indices":[0,1,1,7,7,0,0,1,1,1,1,1,1,9,1,1,0,0,9,5,0,5,0,8,1,0,7,5,7,7,5,0,5,5,4,0,0,1,8,4,0,0,5,4,0,0,5,0,0,4,0,0,0,6,0,8,4,4,0,4,0,0,0,0,0,0,0,0,0,0,0,0,0,0,0,0,0,0,0,0,0,0,0,0,0,0,0,0,0,0,0,0,0,0,0,0,0,0,0,0,0,0,0,0,0,0,0,0,0],"split_type":[0,0,0,0,0,0,0,0,0,0,0,0,0,0,0,0,0,0,0,0,0,0,0,0,0,0,0,0,0,0,0,0,0,0,0,0,0,0,0,0,0,0,0,0,0,0,0,0,0,0,0,0,0,0,0,0,0,0,0,0,0,0,0,0,0,0,0,0,0,0,0,0,0,0,0,0,0,0,0,0,0,0,0,0,0,0,0,0,0,0,0,0,0,0,0,0,0,0,0,0,0,0,0,0,0,0,0,0,0],"sum_hessian":[9.160665E2,5.567584E2,3.593081E2,2.3896828E2,3.1779016E2,2.0076167E2,1.5854643E2,1.7194434E2,6.702394E1,1.3645995E2,1.813302E2,6.0106888E1,1.4065479E2,1.13960434E2,4.4586006E1,6.846302E1,1.0348131E2,2.0875435E1,4.6148506E1,1.0263462E2,3.382533E1,1.4525435E2,3.6075855E1,3.989882E1,2.020807E1,6.1557106E1,7.909768E1,1.3145466E1,1.00814964E2,3.4411068E1,1.0174937E1,9.9149065E0,5.8548115E1,4.4020504E1,5.9460804E1,6.967437E0,1.3907999E1,3.4235785E0,4.2724926E1,7.5198616E1,2.7436005E1,2.615741E1,7.667921E0,1.22969E2,2.2285343E1,9.555229E0,2.6520626E1,7.278249E0,3.262057E1,1.4840817E1,5.3672533E0,4.433087E1,3.476681E1,1.1235102E1,1.910364E0,5.0747574E1,5.0067394E1,1.9494818E1,1.491625E1,8.756176E0,1.4187609E0,2.7475972E0,7.1673093E0,5.3284737E1,5.263377E0,3.794697E1,6.073534E0,5.1285564E1,8.175241E0,3.8866718E0,3.080765E0,1.0754441E0,2.3481343E0,3.42837E1,8.441228E0,4.836338E1,2.6835232E1,2.4416162E1,3.0198426E0,4.9070544E0,2.7608666E0,9.8006546E1,2.4962458E1,1.4857752E1,7.427592E0,1.9199257E1,7.321371E0,4.673883E0,2.6043658E0,2.2026873E1,1.0593698E1,1.2645812E1,2.1950052E0,1.2327474E0,4.134506E0,1.216596E1,3.2164913E1,4.027448E0,7.207653E0,2.917112E1,2.1576456E1,4.278003E1,7.287362E0,1.657157E1,2.9232485E0,2.4717329E0,1.2444518E1,6.9610343E0,1.7951416E0],"tree_param":{"num_deleted":"0","num_feature":"11","num_nodes":"109","size_leaf_vector":"1"}},{"base_weights":[-5.825471E-2,8.359982E-2,-5.215249E-1,-5.709992E-2,3.5456327E-1,-8.048717E-1,-8.9407526E-2,2.194263E-2,-5.046009E-1,5.183297E-1,1.15784116E-1,-9.575368E-1,-5.3311074E-1,-1.2983739E-2,-7.196955E-1,1.1423576E-1,-4.3543625E-1,4.817386E-1,-5.554103E-1,6.864765E-1,3.1579983E-1,-4.9346697E-2,4.9860448E-1,-5.615284E-1,-2.9768068E-1,-4.0307838E-1,-2.869798E-1,9.5760964E-2,-4.7834456E-1,-2.4024243E-2,-2.7230975E-1,5.948775E-1,3.6585372E-2,3.0250683E-1,-5.261068E-1,-2.5743112E-2,2.575297E-1,-4.5936573E-1,-2.932474E-1,3.6607495E-1,8.003237E-1,-2.8584298E-1,3.592347E-1,1.8308374E-1,-2.5242975E-1,6.100518E-1,-2.8048635E-1,-2.5156453E-1,-8.4588565E-2,-2.4178034E-1,-2.7923208E-1,-9.880491E-3,5.591263E-1,-5.2384518E-2,-6.810195E-1,-1.0840051E-1,2.1017973E-1,5.5574596E-2,-5.633208E-2,-1.3725069E-1,2.934595E-1,-4.479011E-3,-1.8936281E-1,-1.8241426E-1,-4.8746783E-2,2.0051894E-1,-4.3663558E-2,3.8022715E-1,1.9587694E-1,8.483426E-2,2.939791E-1,1.1587963E-1,-1.09558515E-1,-4.243542E-2,-2.435829E-1,-4.0679597E-3,2.344659E-1,-2.8113997E-1,8.598782E-2,1.8846127E-1,-2.02309E-1,-1.3272003E-3,-1.6301365E-1,-1.4669581E-1,2.5461854E-2,2.095336E-1,-9.409729E-2,-1.7875782E-1,2.0932423E-1,-2.7036765E-1,-8.25353E-2],"categories":[],"categories_nodes":[],"categories_segments":[],"categories_sizes":[],"default_left":[0,0,0,0,0,0,0,0,0,0,0,0,0,0,0,0,0,0,0,0,0,0,0,0,0,0,0,0,0,0,0,0,0,0,0,0,0,0,0,0,0,0,0,0,0,0,0,0,0,0,0,0,0,0,0,0,0,0,0,0,0,0,0,0,0,0,0,0,0,0,0,0,0,0,0,0,0,0,0,0,0,0,0,0,0,0,0,0,0,0,0],"id":7,"left_children":[1,3,5,7,9,11,13,15,17,19,21,23,25,27,29,31,33,35,37,39,41,43,45,47,-1,49,-1,51,53,-1,-1,55,57,59,61,-1,-1,63,-1,65,67,-1,69,71,73,75,77,-1,79,81,-1,83,85,87,89,-1,-1,-1,-1,-1,-1,-1,-1,-1,-1,-1,-1,-1,-1,-1,-1,-1,-1,-1,-1,-1,-1,-1,-1,-1,-1,-1,-1,-1,-1,-1,-1,-1,-1,-1,-1],"loss_changes":[5.5647705E1,2.474888E1,2.423048E1,1.5143025E1,8.614405E0,4.457939E0,3.831257E0,1.5437964E1,3.4880314E0,4.254444E0,5.810954E0,4.801941E-1,2.1106892E0,3.6958818E0,9.619193E-1,1.13286915E1,4.268469E0,8.611956E-1,2.0472393E0,2.2926903E0,3.7261114E0,3.107739E0,2.5740418E0,1.0369413E0,0E0,2.874074E0,0E0,2.9082458E0,1.1582012E0,0E0,0E0,4.5226345E0,8.803161E0,4.2247176E0,2.948759E0,0E0,0E0,2.1986704E0,0E0,3.2568023E0,2.7154083E0,0E0,2.575087E0,3.5748477E0,2.0606217E0,2.633688E0,1.8134477E0,0E0,2.1863616E0,2.0905943E0,0E0,2.278305E0,1.5598781E0,2.6750534E0,5.8215904E-1,0E0,0E0,0E0,0E0,0E0,0E0,0E0,0E0,0E0,0E0,0E0,0E0,0E0,0E0,0E0,0E0,0E0,0E0,0E0,0E0,0E0,0E0,0E0,0E0,0E0,0E0,0E0,0E0,0E0,0E0,0E0,0E0,0E0,0E0,0E0,0E0],"parents":[2147483647,0,0,1,1,2,2,3,3,4,4,5,5,6,6,7,7,8,8,9,9,10,10,11,11,12,12,13,13,14,14,15,15,16,16,17,17,18,18,19,19,20,20,21,21,22,22,23,23,25,25,27,27,28,28,31,31,32,32,33,33,34,34,37,37,39,39,40,40,42,42,43,43,44,44,45,45,46,46,48,48,49,49,51,51,52,52,53,53,54,54],"right_children":[2,4,6,8,10,12,14,16,18,20,22,24,26,28,30,32,34,36,38,40,42,44,46,48,-1,50,-1,52,54,-1,-1,56,58,60,62,-1,-1,64,-1,66,68,-1,70,72,74,76,78,-1,80,82,-1,84,86,88,90,-1,-1,-1,-1,-1,-1,-1,-1,-1,-1,-1,-1,-1,-1,-1,-1,-1,-1,-1,-1,-1,-1,-1,-1,-1,-1,-1,-1,-1,-1,-1,-1,-1,-1,-1,-1],"split_conditions":[4.950734E1,1.876094E2,2.1747253E2,1E0,1.196096E1,1.8246077E2,1E0,1E0,1.3749118E0,4E0,2.326415E2,5.304753E1,1E0,1E0,5.647233E1,2.8719995E0,2.068518E0,1E0,1.7621037E1,1.999902E2,1.1411324E0,1E0,2.7511978E2,1.525022E2,-2.9768068E-1,1E0,-2.869798E-1,2.576513E2,5.883809E1,-2.4024243E-2,-2.7230975E-1,1.174392E2,1E0,1.599656E2,3E0,-2.5743112E-2,2.575297E-1,1E0,-2.932474E-1,1.949744E2,2.0749738E2,-2.8584298E-1,2.551555E2,1E0,1E0,1E0,2.5776115E1,-2.5156453E-1,1E0,1E0,-2.7923208E-1,5.461973E1,6.926448E1,5.48376E1,2.52624E2,-1.0840051E-1,2.1017973E-1,5.5574596E-2,-5.633208E-2,-1.3725069E-1,2.934595E-1,-4.479011E-3,-1.8936281E-1,-1.8241426E-1,-4.8746783E-2,2.0051894E-1,-4.3663558E-2,3.8022715E-1,1.9587694E-1,8.483426E-2,2.939791E-1,1.1587963E-1,-1.09558515E-1,-4.243542E-2,-2.435829E-1,-4.0679597E-3,2.344659E-1,-2.8113997E-1,8.598782E-2,1.8846127E-1,-2.02309E-1,-1.3272003E-3,-1.6301365E-1,-1.4669581E-1,2.5461854E-2,2.095336E-1,-9.409729E-2,-1.7875782E-1,2.0932423E-1,-2.7036765E-1,-8.25353E-2],"split_indices":[0,1,1,4,0,1,5,5,0,8,1,0,4,4,0,0,0,6,0,1,0,7,1,1,0,5,0,1,0,0,0,1,7,1,8,0,0,2,0,1,1,0,1,5,4,6,0,0,6,7,0,0,0,0,1,0,0,0,0,0,0,0,0,0,0,0,0,0,0,0,0,0,0,0,0,0,0,0,0,0,0,0,0,0,0,0,0,0,0,0,0],"split_type":[0,0,0,0,0,0,0,0,0,0,0,0,0,0,0,0,0,0,0,0,0,0,0,0,0,0,0,0,0,0,0,0,0,0,0,0,0,0,0,0,0,0,0,0,0,0,0,0,0,0,0,0,0,0,0,0,0,0,0,0,0,0,0,0,0,0,0,0,0,0,0,0,0,0,0,0,0,0,0,0,0,0,0,0,0,0,0,0,0,0,0],"sum_hessian":[8.451147E2,6.4762866E2,1.9748604E2,4.267993E2,2.2082938E2,1.1875422E2,7.873181E1,3.6353815E2,6.3261147E1,1.3029556E2,9.0533806E1,7.442283E1,4.4331398E1,7.112799E1,7.6038237E0,3.0312225E2,6.04159E1,2.6836402E0,6.0577507E1,6.988515E1,6.0410416E1,6.385908E1,2.6674726E1,7.385232E0,6.703759E1,3.541042E1,8.9209795E0,5.8299E1,1.2828986E1,2.0512245E0,5.5525994E0,4.123349E1,2.6188876E2,6.35532E0,5.406058E1,1.3786644E0,1.304976E0,5.1049515E1,9.527991E0,1.9427002E1,5.045814E1,1.3067715E0,5.9103645E1,2.9823868E1,3.4035213E1,2.3526306E1,3.14842E0,4.1921363E0,3.1930954E0,2.8237408E1,7.1730103E0,4.827222E1,1.002678E1,4.5418615E0,8.287125E0,3.864324E0,3.7369164E1,1.5762117E2,1.04267586E2,3.1430123E0,3.2123077E0,9.41446E0,4.4646122E1,3.331602E1,1.7733496E1,1.2018638E1,7.408364E0,1.02807665E1,4.0177376E1,5.3917923E1,5.185723E0,2.1975616E1,7.8482513E0,2.9447226E1,4.587989E0,5.2731256E0,1.8253181E1,1.1566713E0,1.9917487E0,1.4162625E0,1.7768329E0,1.6369427E1,1.1867981E1,7.2835355E0,4.0988686E1,8.818818E0,1.2079625E0,2.7529757E0,1.788886E0,4.581376E0,3.7057488E0],"tree_param":{"num_deleted":"0","num_feature":"11","num_nodes":"91","size_leaf_vector":"1"}},{"base_weights":[-5.030003E-2,9.064426E-2,-3.7982193E-1,-9.373688E-2,2.2999257E-1,-7.78739E-1,-1.3296941E-1,-2.9404333E-2,-4.8927978E-1,4.379118E-1,8.264162E-2,-5.1659167E-1,-9.377288E-1,-4.6289753E-2,-7.4496365E-1,-3.403317E-1,6.366917E-2,2.1610992E-1,-5.5234313E-1,3.2486472E-1,8.1718683E-1,3.961172E-2,7.686469E-1,-8.909298E-1,-3.301763E-1,-2.9065496E-1,-3.9343193E-1,7.573052E-2,-5.861451E-1,1.534839E-2,-8.089924E-1,-3.0302787E-1,-1.6577832E-1,1.9478917E-1,-2.1426028E-1,-8.7307715E-1,-3.4832874E-1,4.3536618E-1,3.463887E-2,8.8100815E-1,6.334191E-2,1.297577E-1,-3.7179404E-1,3.0213544E-1,1.8344857E-1,-2.8859416E-1,-5.9446078E-2,-6.937349E-2,-7.6557666E-1,-7.1598054E-3,-1.970474E-1,2.500046E-1,-1.24615E-1,-2.741869E-1,-2.2572604E-1,-1.9058822E-2,-2.5602442E-1,2.5148083E-2,-1.8407813E-1,1.6874255E-1,2.7323732E-2,-2.05503E-1,-2.5560549E-2,-4.2592123E-2,-3.000882E-1,-1.6381054E-1,1.9101806E-2,1.9167447E-1,2.9857699E-2,5.9905324E-2,-1.9687574E-1,2.8999245E-1,1.754865E-1,-8.744262E-2,1.1240921E-1,7.298619E-2,-8.592309E-2,5.7558913E-2,-1.4975871E-1,2.4363777E-1,-1.8966976E-1,3.2092772E-2,-2.298074E-1,-1.7130444E-3,-2.8416118E-1,2.0319594E-1,4.1006315E-2,-6.8641245E-2,2.3459114E-1,4.6606597E-2,-1.649319E-1],"categories":[],"categories_nodes":[],"categories_segments":[],"categories_sizes":[],"default_left":[0,0,0,0,0,0,0,0,0,0,0,0,0,0,0,0,0,0,0,0,0,0,0,0,0,0,0,0,0,0,0,0,0,0,0,0,0,0,0,0,0,0,0,0,0,0,0,0,0,0,0,0,0,0,0,0,0,0,0,0,0,0,0,0,0,0,0,0,0,0,0,0,0,0,0,0,0,0,0,0,0,0,0,0,0,0,0,0,0,0,0],"id":8,"left_children":[1,3,5,7,9,11,13,15,17,19,21,23,25,27,29,31,33,-1,35,37,39,41,43,45,47,-1,49,51,53,-1,55,-1,57,59,61,63,65,67,69,71,73,75,77,-1,79,-1,-1,81,83,-1,-1,85,87,-1,89,-1,-1,-1,-1,-1,-1,-1,-1,-1,-1,-1,-1,-1,-1,-1,-1,-1,-1,-1,-1,-1,-1,-1,-1,-1,-1,-1,-1,-1,-1,-1,-1,-1,-1,-1,-1],"loss_changes":[3.6969967E1,1.4353852E1,2.3376709E1,6.113693E0,9.706413E0,3.305893E0,7.843107E0,6.0467587E0,2.9629707E0,5.3795834E0,5.4995894E0,2.2570257E0,5.56942E-1,8.683251E0,9.7714615E-1,5.4584875E0,5.911706E0,0E0,1.8241434E0,3.2910013E0,1.3669453E0,6.62506E0,1.3507528E0,3.7862778E-1,2.8986466E0,0E0,4.397844E-1,3.7968166E0,2.6637154E0,0E0,5.104046E-1,0E0,4.4520874E0,4.142136E0,3.1074762E0,9.723654E-1,1.7896109E0,5.034358E0,3.4963992E0,1.2378883E-1,4.832425E-1,6.9774666E0,2.4032183E0,0E0,2.7740571E0,0E0,0E0,2.2142425E0,1.3247614E0,0E0,0E0,2.7164621E0,4.9811254E0,0E0,1.6781919E0,0E0,0E0,0E0,0E0,0E0,0E0,0E0,0E0,0E0,0E0,0E0,0E0,0E0,0E0,0E0,0E0,0E0,0E0,0E0,0E0,0E0,0E0,0E0,0E0,0E0,0E0,0E0,0E0,0E0,0E0,0E0,0E0,0E0,0E0,0E0,0E0],"parents":[2147483647,0,0,1,1,2,2,3,3,4,4,5,5,6,6,7,7,8,8,9,9,10,10,11,11,12,12,13,13,14,14,15,15,16,16,18,18,19,19,20,20,21,21,22,22,23,23,24,24,26,26,27,27,28,28,30,30,32,32,33,33,34,34,35,35,36,36,37,37,38,38,39,39,40,40,41,41,42,42,44,44,47,47,48,48,51,51,52,52,54,54],"right_children":[2,4,6,8,10,12,14,16,18,20,22,24,26,28,30,32,34,-1,36,38,40,42,44,46,48,-1,50,52,54,-1,56,-1,58,60,62,64,66,68,70,72,74,76,78,-1,80,-1,-1,82,84,-1,-1,86,88,-1,90,-1,-1,-1,-1,-1,-1,-1,-1,-1,-1,-1,-1,-1,-1,-1,-1,-1,-1,-1,-1,-1,-1,-1,-1,-1,-1,-1,-1,-1,-1,-1,-1,-1,-1,-1,-1],"split_conditions":[2.3007645E1,1.62447E2,1.849785E2,1.4418902E1,1E0,5.304753E1,1E0,1.250073E2,2E0,2.126695E2,2.576513E2,1.39965E2,1.8246077E2,1E0,2.9705275E1,3E0,1E0,2.1610992E-1,1.6003302E1,1E0,1.956364E1,1E0,1E0,1E0,1E0,-2.9065496E-1,1.82497E2,1E0,2.251457E2,1.534839E-2,1.874847E2,-3.0302787E-1,8.000279E0,3.2604628E0,1.449607E2,1.174392E2,1E0,1E0,1.2736226E1,1.196096E1,2.119498E1,1E0,3.080084E0,3.0213544E-1,2.7511978E2,-2.8859416E-1,-5.9446078E-2,1E0,1.524884E2,-7.1598054E-3,-1.970474E-1,5.098192E1,2.751336E2,-2.741869E-1,1E0,-1.9058822E-2,-2.5602442E-1,2.5148083E-2,-1.8407813E-1,1.6874255E-1,2.7323732E-2,-2.05503E-1,-2.5560549E-2,-4.2592123E-2,-3.000882E-1,-1.6381054E-1,1.9101806E-2,1.9167447E-1,2.9857699E-2,5.9905324E-2,-1.9687574E-1,2.8999245E-1,1.754865E-1,-8.744262E-2,1.1240921E-1,7.298619E-2,-8.592309E-2,5.7558913E-2,-1.4975871E-1,2.4363777E-1,-1.8966976E-1,3.2092772E-2,-2.298074E-1,-1.7130444E-3,-2.8416118E-1,2.0319594E-1,4.1006315E-2,-6.8641245E-2,2.3459114E-1,4.6606597E-2,-1.649319E-1],"split_indices":[0,1,1,0,7,0,5,1,8,1,1,1,1,4,0,8,7,0,0,5,0,5,4,2,7,0,1,7,1,0,1,0,0,0,1,1,6,4,0,0,0,4,0,0,1,0,0,4,1,0,0,0,1,0,7,0,0,0,0,0,0,0,0,0,0,0,0,0,0,0,0,0,0,0,0,0,0,0,0,0,0,0,0,0,0,0,0,0,0,0,0],"split_type":[0,0,0,0,0,0,0,0,0,0,0,0,0,0,0,0,0,0,0,0,0,0,0,0,0,0,0,0,0,0,0,0,0,0,0,0,0,0,0,0,0,0,0,0,0,0,0,0,0,0,0,0,0,0,0,0,0,0,0,0,0,0,0,0,0,0,0,0,0,0,0,0,0,0,0,0,0,0,0,0,0,0,0,0,0,0,0,0,0,0,0],"sum_hessian":[7.942664E2,5.568244E2,2.3744202E2,2.3982419E2,3.1700024E2,8.994118E1,1.4750084E2,2.0719893E2,3.2625256E1,1.3066034E2,1.8633989E2,3.555923E1,5.4381943E1,1.3014362E2,1.7357225E1,4.7122353E1,1.6007657E2,1.1001377E0,3.1525116E1,1.0208834E2,2.8572006E1,1.7633685E2,1.0003042E1,1.0564843E1,2.4994389E1,5.0702923E1,3.6790183E0,1.0685218E2,2.329144E1,1.3070085E0,1.6050217E1,8.752458E0,3.8369892E1,1.0896759E2,5.1108982E1,1.0981481E1,2.0543636E1,7.357506E1,2.851328E1,2.6186356E1,2.3856518E0,1.4520465E2,3.1132204E1,6.594688E0,3.4083543E0,9.229667E0,1.3351768E0,1.6356346E1,8.638042E0,1.9847828E0,1.6942356E0,5.7011692E1,4.9840492E1,1.1393194E1,1.1898245E1,1.0393155E0,1.50109005E1,2.5159304E1,1.321059E1,2.3000345E1,8.596725E1,1.0070045E1,4.1038937E1,1.9412557E0,9.040225E0,1.3662239E1,6.881397E0,4.5248234E1,2.8326824E1,2.3589106E1,4.924175E0,1.8554403E1,7.631952E0,1.1448469E0,1.2408049E0,1.1440945E2,3.0795198E1,5.6461654E0,2.5486038E1,1.9272816E0,1.4810727E0,1.372776E1,2.628585E0,1.8653777E0,6.7726645E0,1.0906465E1,4.6105225E1,4.5373566E1,4.4669275E0,5.707162E0,6.191083E0],"tree_param":{"num_deleted":"0","num_feature":"11","num_nodes":"91","size_leaf_vector":"1"}},{"base_weights":[-4.2826474E-2,5.93281E-2,-3.4721956E-1,-1.1863795E-2,3.542079E-1,-7.808066E-1,-1.2952776E-1,-7.987238E-1,4.356968E-3,6.740107E-1,2.1850947E-1,-4.9036923E-1,-9.0480876E-1,-3.3154643E-1,7.284363E-2,-2.5652072E-1,-2.8432307E-1,1.01031065E-1,-1.3195582E-1,-9.084043E-2,7.3573464E-1,-5.631952E-1,2.886591E-1,-8.0235237E-1,-2.4970645E-1,-2.8316623E-1,-3.469984E-1,-2.4057196E-1,-8.411317E-1,1.7387235E-1,-3.433855E-1,1.2877457E-1,-2.2089551E-1,6.9767E-1,5.1967427E-2,-6.1271E-1,-7.8133665E-2,9.51263E-2,8.1084454E-1,2.7808757E-2,-1.0894996E0,8.967174E-1,2.1214178E-1,-2.6547816E-1,-8.9615814E-2,2.032427E-1,-4.6150252E-1,7.5445854E-4,-1.8563797E-1,-1.4458358E-1,-8.0774474E-1,-3.549727E-2,-2.7529E-1,7.5089204E-1,6.7423746E-2,-3.1207615E-1,-1.2603557E-1,-2.356846E-2,2.5397968E-1,-1.7313948E-2,6.243837E-2,-2.0307705E-1,-9.364028E-3,-1.51611E-2,-2.0995693E-1,-4.982454E-2,6.9954515E-2,2.8312233E-1,9.75116E-2,1.9230807E-1,-1.5459688E-1,-3.9024612E-1,-9.6035115E-2,3.0589739E-2,3.000476E-1,1.00402035E-1,-3.7135392E-2,-7.5703405E-2,-2.331061E-1,1.1735829E-2,-1.3242114E-1,-5.625997E-2,-2.6513958E-1,1.3260573E-1,4.0441677E-1,6.3729204E-2,-1.273351E-1,1.0985548E-1,-1.597198E-1],"categories":[],"categories_nodes":[],"categories_segments":[],"categories_sizes":[],"default_left":[0,0,0,0,0,0,0,0,0,0,0,0,0,0,0,0,0,0,0,0,0,0,0,0,0,0,0,0,0,0,0,0,0,0,0,0,0,0,0,0,0,0,0,0,0,0,0,0,0,0,0,0,0,0,0,0,0,0,0,0,0,0,0,0,0,0,0,0,0,0,0,0,0,0,0,0,0,0,0,0,0,0,0,0,0,0,0,0,0],"id":9,"left_children":[1,3,5,7,9,11,13,15,17,19,21,23,25,27,29,31,-1,33,35,-1,37,39,41,43,45,-1,47,49,51,53,55,-1,-1,57,59,61,63,65,67,69,71,73,75,-1,-1,-1,77,-1,-1,79,81,-1,-1,83,85,-1,87,-1,-1,-1,-1,-1,-1,-1,-1,-1,-1,-1,-1,-1,-1,-1,-1,-1,-1,-1,-1,-1,-1,-1,-1,-1,-1,-1,-1,-1,-1,-1,-1],"loss_changes":[2.3319881E1,1.1799515E1,1.768375E1,5.7925525E0,4.5960617E0,1.8173904E0,5.201574E0,4.975376E-1,5.882763E0,2.157114E0,4.451831E0,1.3739696E0,6.0575485E-1,2.74404E0,2.7545476E0,1.4174373E0,0E0,7.608588E0,4.7453747E0,0E0,1.3888264E0,2.1392567E0,3.1801462E0,9.659624E-2,2.922211E0,0E0,4.1805643E-1,2.8954167E0,4.0163755E-1,3.1576142E0,1.8156542E0,0E0,0E0,2.3512135E0,4.1636305E0,6.698327E-1,2.8426275E0,1.9488078E-1,1.445261E0,1.7188182E0,1.7073107E-1,5.3817844E-1,2.7437825E0,0E0,0E0,0E0,5.5706596E-1,0E0,0E0,2.6638994E0,2.0173025E-1,0E0,0E0,8.864231E-1,3.3137507E0,0E0,2.3822021E0,0E0,0E0,0E0,0E0,0E0,0E0,0E0,0E0,0E0,0E0,0E0,0E0,0E0,0E0,0E0,0E0,0E0,0E0,0E0,0E0,0E0,0E0,0E0,0E0,0E0,0E0,0E0,0E0,0E0,0E0,0E0,0E0],"parents":[2147483647,0,0,1,1,2,2,3,3,4,4,5,5,6,6,7,7,8,8,9,9,10,10,11,11,12,12,13,13,14,14,15,15,17,17,18,18,20,20,21,21,22,22,23,23,24,24,26,26,27,27,28,28,29,29,30,30,33,33,34,34,35,35,36,36,37,37,38,38,39,39,40,40,41,41,42,42,46,46,49,49,50,50,53,53,54,54,56,56],"right_children":[2,4,6,8,10,12,14,16,18,20,22,24,26,28,30,32,-1,34,36,-1,38,40,42,44,46,-1,48,50,52,54,56,-1,-1,58,60,62,64,66,68,70,72,74,76,-1,-1,-1,78,-1,-1,80,82,-1,-1,84,86,-1,88,-1,-1,-1,-1,-1,-1,-1,-1,-1,-1,-1,-1,-1,-1,-1,-1,-1,-1,-1,-1,-1,-1,-1,-1,-1,-1,-1,-1,-1,-1,-1,-1],"split_conditions":[4.204904E1,2.074754E2,1.849785E2,1.049629E2,5.799929E0,5.304753E1,2.326228E2,4.164919E0,1E0,1.1411324E0,6.735272E0,1.499741E2,1.8246077E2,1E0,6.686003E1,9.25018E1,-2.8432307E-1,1.9341716E0,1.449607E2,-9.084043E-2,1E0,1E0,7.458099E0,1E0,1.574698E2,-2.8316623E-1,6.317583E1,1E0,4.799043E1,1E0,1E0,1.2877457E-1,-2.2089551E-1,1.2771362E0,1.5499185E2,1.85303E1,2.0496336E2,2.076094E2,1E0,1E0,2.301051E2,6.864219E0,1E0,-2.6547816E-1,-8.9615814E-2,2.032427E-1,1E0,7.5445854E-4,-1.8563797E-1,1E0,4.760481E1,-3.549727E-2,-2.7529E-1,1E0,1E0,-3.1207615E-1,1E0,-2.356846E-2,2.5397968E-1,-1.7313948E-2,6.243837E-2,-2.0307705E-1,-9.364028E-3,-1.51611E-2,-2.0995693E-1,-4.982454E-2,6.9954515E-2,2.8312233E-1,9.75116E-2,1.9230807E-1,-1.5459688E-1,-3.9024612E-1,-9.6035115E-2,3.0589739E-2,3.000476E-1,1.00402035E-1,-3.7135392E-2,-7.5703405E-2,-2.331061E-1,1.1735829E-2,-1.3242114E-1,-5.625997E-2,-2.6513958E-1,1.3260573E-1,4.0441677E-1,6.3729204E-2,-1.273351E-1,1.0985548E-1,-1.597198E-1],"split_indices":[0,1,1,1,0,0,1,0,7,0,0,1,1,4,0,1,0,0,1,0,3,4,0,2,1,0,0,5,0,9,9,0,0,0,1,0,1,1,10,5,1,0,4,0,0,0,7,0,0,7,0,0,0,10,10,0,7,0,0,0,0,0,0,0,0,0,0,0,0,0,0,0,0,0,0,0,0,0,0,0,0,0,0,0,0,0,0,0,0],"split_type":[0,0,0,0,0,0,0,0,0,0,0,0,0,0,0,0,0,0,0,0,0,0,0,0,0,0,0,0,0,0,0,0,0,0,0,0,0,0,0,0,0,0,0,0,0,0,0,0,0,0,0,0,0,0,0,0,0,0,0,0,0,0,0,0,0,0,0,0,0,0,0,0,0,0,0,0,0,0,0,0,0,0,0,0,0,0,0,0,0],"sum_hessian":[7.482899E2,5.6086743E2,1.8742249E2,4.525657E2,1.08301735E2,6.1781868E1,1.25640625E2,8.166623E0,4.4439908E2,3.1082384E1,7.721935E1,1.9967825E1,4.181404E1,6.255568E1,6.3084946E1,2.3473306E0,5.819293E0,2.601544E2,1.8424469E2,1.6152072E0,2.9467176E1,5.780172E0,7.1439186E1,7.6790996E0,1.2288727E1,3.8429638E1,3.384403E0,5.4328667E1,8.227011E0,5.123199E1,1.1852956E1,1.0096312E0,1.3376994E0,1.8763306E1,2.4139108E2,1.7504627E1,1.6674007E2,3.3302388E0,2.6136938E1,3.168888E0,2.6112835E0,6.786884E0,6.46523E1,5.9469585E0,1.732141E0,1.8762649E0,1.0412461E1,1.9139348E0,1.470468E0,4.7538216E1,6.790453E0,1.0311472E0,7.1958632E0,7.036362E0,4.419563E1,1.9178519E0,9.935103E0,3.0965073E0,1.5666798E1,1.4216838E2,9.92227E1,1.561607E1,1.8885567E0,1.606888E2,6.051275E0,1.0813187E0,2.24892E0,1.9782604E1,6.3543334E0,1.4037521E0,1.7651361E0,1.5067128E0,1.1045707E0,1.0103073E0,5.7765765E0,4.7375473E1,1.7276825E1,7.343926E0,3.0685353E0,2.990075E1,1.7637466E1,1.1203016E0,5.670151E0,5.784582E0,1.2517802E0,3.4571808E1,9.623821E0,4.5376325E0,5.3974714E0],"tree_param":{"num_deleted":"0","num_feature":"11","num_nodes":"89","size_leaf_vector":"1"}},{"base_weights":[-3.6410507E-2,8.1151985E-2,-2.249841E-1,4.5578334E-2,4.826163E-1,-5.810309E-1,-7.630939E-2,1.01590596E-1,-2.160079E-1,2.8447232E-1,3.4366387E-1,-4.110298E-1,-2.8095707E-1,-3.523823E-3,-5.1524574E-1,1.7254639E-1,-1.821929E-1,-4.0857822E-1,3.3015285E-2,5.202084E-1,-3.175217E-2,-3.1948072E-1,-2.7530578E-1,8.1309296E-2,-3.732739E-1,-2.3052381E-1,-8.2104933E-1,-3.786983E-2,2.3869202E-1,-7.145884E-1,-5.1577616E-2,-3.2067275E-1,-8.480739E-1,3.7514928E-1,-2.3071116E-1,2.9040885E-1,4.5116566E-2,3.035321E-1,-7.8617984E-1,-2.171668E-1,-8.1150186E-1,1.5955971E-1,-2.0480108E-1,2.9178414E-1,-5.3088045E-1,-5.775642E-1,4.5702938E-2,-2.799545E-1,-4.3394876E-1,-1.7118105E-1,2.5452847E-2,1.4031887E-1,2.2591675E-2,-2.4667333E-1,-2.8809633E-2,3.7653644E-2,-9.0799816E-2,-1.2916319E-1,1.3072738E-1,-3.2020777E-1,-8.468528E-2,2.0595616E-1,8.757898E-3,-1.6002987E-1,4.1037925E-2,-5.8784883E-2,1.7943437E-1,-4.296246E-2,2.726557E-1,-4.4437997E-2,-3.3856228E-1,-2.5015716E-2,-1.8708304E-1,-2.7473247E-1,-1.0463055E-2,3.224476E-1,4.000045E-2,-1.0595956E-1,1.0032079E-1,3.1183907E-1,-5.4869715E-2,-2.2851463E-1,1.6992334E-2,-2.551776E-1,2.98051E-2,1.8450949E-1,-7.447503E-2,1.264005E-1,-2.3484978E-1],"categories":[],"categories_nodes":[],"categories_segments":[],"categories_sizes":[],"default_left":[0,0,0,0,0,0,0,0,0,0,0,0,0,0,0,0,0,0,0,0,0,0,0,0,0,0,0,0,0,0,0,0,0,0,0,0,0,0,0,0,0,0,0,0,0,0,0,0,0,0,0,0,0,0,0,0,0,0,0,0,0,0,0,0,0,0,0,0,0,0,0,0,0,0,0,0,0,0,0,0,0,0,0,0,0,0,0,0,0],"id":10,"left_children":[1,3,5,7,9,11,13,15,17,-1,19,21,-1,23,25,27,29,31,33,35,37,39,-1,41,43,45,47,49,51,53,55,57,59,61,63,-1,65,67,69,71,73,75,77,79,81,83,85,-1,87,-1,-1,-1,-1,-1,-1,-1,-1,-1,-1,-1,-1,-1,-1,-1,-1,-1,-1,-1,-1,-1,-1,-1,-1,-1,-1,-1,-1,-1,-1,-1,-1,-1,-1,-1,-1,-1,-1,-1,-1],"loss_changes":[1.5990973E1,6.32677E0,1.461598E1,6.0214105E0,2.0085058E0,4.536152E0,6.276641E0,6.836013E0,3.4917955E0,0E0,1.9621792E0,2.3445883E0,0E0,5.3493958E0,2.2439055E0,3.7787542E0,4.6973476E0,1.3111868E0,3.0240438E0,4.216592E0,2.8521016E0,2.3256588E0,0E0,3.1390462E0,3.4906545E0,1.5469468E0,1.6295624E-1,4.339668E0,7.681383E0,8.089771E-1,2.5167313E0,3.1592772E0,4.7066355E-1,1.5475166E0,2.1871545E0,0E0,1.5522898E0,2.2595935E0,5.881109E-1,2.2594008E0,6.313162E-1,2.4853215E0,2.5374842E0,2.5830142E0,3.5804143E0,1.3972914E0,1.7858586E0,0E0,1.7644881E0,0E0,0E0,0E0,0E0,0E0,0E0,0E0,0E0,0E0,0E0,0E0,0E0,0E0,0E0,0E0,0E0,0E0,0E0,0E0,0E0,0E0,0E0,0E0,0E0,0E0,0E0,0E0,0E0,0E0,0E0,0E0,0E0,0E0,0E0,0E0,0E0,0E0,0E0,0E0,0E0],"parents":[2147483647,0,0,1,1,2,2,3,3,4,4,5,5,6,6,7,7,8,8,10,10,11,11,13,13,14,14,15,15,16,16,17,17,18,18,19,19,20,20,21,21,23,23,24,24,25,25,26,26,27,27,28,28,29,29,30,30,31,31,32,32,33,33,34,34,36,36,37,37,38,38,39,39,40,40,41,41,42,42,43,43,44,44,45,45,46,46,48,48],"right_children":[2,4,6,8,10,12,14,16,18,-1,20,22,-1,24,26,28,30,32,34,36,38,40,-1,42,44,46,48,50,52,54,56,58,60,62,64,-1,66,68,70,72,74,76,78,80,82,84,86,-1,88,-1,-1,-1,-1,-1,-1,-1,-1,-1,-1,-1,-1,-1,-1,-1,-1,-1,-1,-1,-1,-1,-1,-1,-1,-1,-1,-1,-1,-1,-1,-1,-1,-1,-1,-1,-1,-1,-1,-1,-1],"split_conditions":[1.4642981E1,2.301344E2,1.724404E2,1E0,3.523461E0,5.304753E1,1E0,1E0,1.824653E2,2.8447232E-1,1E0,1E0,-2.8095707E-1,1E0,4.359094E1,1.374392E2,1.499447E2,1.7247417E2,5.7018633E0,1E0,1E0,1E0,-2.7530578E-1,6.491269E1,1.7621037E1,1.904207E1,2.351417E2,3E0,1E0,1E0,1E0,1.650113E2,1.776508E2,4E0,9.086633E0,2.9040885E-1,1E0,8.850427E0,8.437873E0,1E0,5E0,1.486128E1,2.551198E2,1.9015993E2,2.45175E2,2.2265E2,2.119498E1,-2.799545E-1,2.426326E2,-1.7118105E-1,2.5452847E-2,1.4031887E-1,2.2591675E-2,-2.4667333E-1,-2.8809633E-2,3.7653644E-2,-9.0799816E-2,-1.2916319E-1,1.3072738E-1,-3.2020777E-1,-8.468528E-2,2.0595616E-1,8.757898E-3,-1.6002987E-1,4.1037925E-2,-5.8784883E-2,1.7943437E-1,-4.296246E-2,2.726557E-1,-4.4437997E-2,-3.3856228E-1,-2.5015716E-2,-1.8708304E-1,-2.7473247E-1,-1.0463055E-2,3.224476E-1,4.000045E-2,-1.0595956E-1,1.0032079E-1,3.1183907E-1,-5.4869715E-2,-2.2851463E-1,1.6992334E-2,-2.551776E-1,2.98051E-2,1.8450949E-1,-7.447503E-2,1.264005E-1,-2.3484978E-1],"split_indices":[0,1,1,4,0,0,5,5,1,0,5,4,0,4,0,1,1,1,0,4,10,5,0,0,0,0,1,8,7,10,7,1,1,8,0,0,10,0,0,7,8,0,1,1,1,1,0,0,1,0,0,0,0,0,0,0,0,0,0,0,0,0,0,0,0,0,0,0,0,0,0,0,0,0,0,0,0,0,0,0,0,0,0,0,0,0,0,0,0],"split_type":[0,0,0,0,0,0,0,0,0,0,0,0,0,0,0,0,0,0,0,0,0,0,0,0,0,0,0,0,0,0,0,0,0,0,0,0,0,0,0,0,0,0,0,0,0,0,0,0,0,0,0,0,0,0,0,0,0,0,0,0,0,0,0,0,0,0,0,0,0,0,0,0,0,0,0,0,0,0,0,0,0,0,0,0,0,0,0,0,0],"sum_hessian":[7.194919E2,4.4354324E2,2.7594864E2,4.0846298E2,3.5080265E1,8.042896E1,1.9551968E2,3.3692947E2,7.1533516E1,6.7240376E0,2.8356228E1,5.5868275E1,2.456069E1,1.6857428E2,2.6945396E1,2.698496E2,6.707986E1,3.9977833E1,3.1555687E1,1.902417E1,9.332059E0,4.869924E1,7.1690316E0,1.3774991E2,3.0824371E1,1.4861893E1,1.2083505E1,6.464249E1,2.0520712E2,1.2334161E1,5.4745697E1,3.475581E1,5.222023E0,1.3552042E1,1.8003645E1,9.259042E0,9.765127E0,6.8745317E0,2.4575274E0,4.1508984E1,7.1902585E0,1.08513954E2,2.9235958E1,5.74225E0,2.508212E1,6.103185E0,8.758707E0,8.275599E0,3.8079057E0,1.1419028E1,5.3223457E1,8.46628E1,1.2054431E2,1.0225226E1,2.1089349E0,3.2396763E1,2.2348934E1,3.0723986E1,4.0318236E0,3.124539E0,2.097484E0,6.6144347E0,6.9376073E0,9.624347E0,8.379298E0,7.2502255E0,2.5149019E0,4.394619E0,2.4799128E0,1.3584557E0,1.0990717E0,3.2136417E1,9.372566E0,6.181175E0,1.0090835E0,1.9088504E0,1.066051E2,2.3196795E1,6.0391636E0,1.7678626E0,3.9743872E0,1.7794315E1,7.2878056E0,4.1662087E0,1.9369767E0,2.6104689E0,6.148238E0,1.0430986E0,2.764807E0],"tree_param":{"num_deleted":"0","num_feature":"11","num_nodes":"89","size_leaf_vector":"1"}},{"base_weights":[-3.1163914E-2,2.557853E-2,-2.745341E-1,-9.073499E-2,1.4251763E-1,-8.029457E-1,-1.2651353E-1,-2.5995618E-1,3.129544E-2,2.0520864E-1,-8.139524E-2,-2.9604095E-1,-2.656801E-1,-8.205452E-2,-6.5178E-1,-1.8512094E-1,-9.193076E-1,3.070942E-1,-5.3273145E-2,1.4097348E-1,5.2416533E-1,-1.3221559E-1,5.578833E-1,-2.094069E-1,1.7553371E-1,-1.7858207E-2,-4.564357E-1,-6.903446E-2,-2.5541073E-1,-1.0075365E-1,-7.286798E-1,-6.373387E-2,-2.9065052E-1,2.2829337E-1,3.231586E-1,4.66035E-1,-1.0136859E-1,8.751287E-1,1.1024181E-1,8.613066E-1,9.268277E-2,-8.181747E-2,-6.046256E-1,2.4910396E-1,-6.6080704E-2,2.3455796E-1,-1.6326512E-1,1.0218516E-1,-1.7930095E-1,-2.5485957E-1,-1.5630566E-1,-1.6145256E-1,1.3712631E-1,4.1864984E-2,-8.572048E-2,-7.329945E-2,-2.45897E-1,2.6813393E-2,2.0744447E-1,2.6009789E-2,2.6624984E-1,-1.6952874E-1,-1.5741328E-2,3.085649E-1,2.1126362E-2,5.114782E-2,-3.0939443E-2,1.3022172E-1,2.983909E-1,2.3924792E-1,-2.9356224E-2,5.4341955E-3,-1.1288218E-1,4.3852754E-2,-2.9163364E-1,2.7206704E-1,1.0842089E-2,-7.806863E-2,1.3764209E-1,6.322101E-2,-1.2357014E-1],"categories":[],"categories_nodes":[],"categories_segments":[],"categories_sizes":[],"default_left":[0,0,0,0,0,0,0,0,0,0,0,0,0,0,0,0,0,0,0,0,0,0,0,0,0,0,0,0,0,0,0,0,0,0,0,0,0,0,0,0,0,0,0,0,0,0,0,0,0,0,0,0,0,0,0,0,0,0,0,0,0,0,0,0,0,0,0,0,0,0,0,0,0,0,0,0,0,0,0,0,0],"id":11,"left_children":[1,3,5,7,9,11,13,15,17,19,21,23,-1,25,27,29,31,33,35,37,39,41,43,-1,45,47,49,51,-1,53,55,-1,-1,57,-1,59,61,63,65,67,69,71,73,-1,-1,-1,-1,75,77,-1,79,-1,-1,-1,-1,-1,-1,-1,-1,-1,-1,-1,-1,-1,-1,-1,-1,-1,-1,-1,-1,-1,-1,-1,-1,-1,-1,-1,-1,-1,-1],"loss_changes":[9.504225E0,7.611032E0,1.0075491E1,5.8039923E0,3.9324002E0,9.229317E-1,2.3478858E0,5.637653E0,3.84067E0,4.3969746E0,2.0793517E0,1.1590068E0,0E0,2.297887E0,8.577912E-1,4.831555E0,2.0536709E-1,2.0980918E0,3.2027326E0,4.0324326E0,5.187971E0,1.3313066E0,1.1873788E0,0E0,1.8722274E0,1.6258196E0,1.5193787E0,1.010827E0,0E0,4.207141E0,4.259038E-1,0E0,0E0,2.2744932E0,0E0,1.6637378E0,2.610897E0,8.1753826E-1,2.2904565E0,7.193537E-1,2.361585E0,1.5828652E0,1.6414313E0,0E0,0E0,0E0,0E0,2.5293922E0,1.964839E0,0E0,9.4673663E-1,0E0,0E0,0E0,0E0,0E0,0E0,0E0,0E0,0E0,0E0,0E0,0E0,0E0,0E0,0E0,0E0,0E0,0E0,0E0,0E0,0E0,0E0,0E0,0E0,0E0,0E0,0E0,0E0,0E0,0E0],"parents":[2147483647,0,0,1,1,2,2,3,3,4,4,5,5,6,6,7,7,8,8,9,9,10,10,11,11,13,13,14,14,15,15,16,16,17,17,18,18,19,19,20,20,21,21,22,22,24,24,25,25,26,26,27,27,29,29,30,30,33,33,35,35,36,36,37,37,38,38,39,39,40,40,41,41,42,42,47,47,48,48,50,50],"right_children":[2,4,6,8,10,12,14,16,18,20,22,24,-1,26,28,30,32,34,36,38,40,42,44,-1,46,48,50,52,-1,54,56,-1,-1,58,-1,60,62,64,66,68,70,72,74,-1,-1,-1,-1,76,78,-1,80,-1,-1,-1,-1,-1,-1,-1,-1,-1,-1,-1,-1,-1,-1,-1,-1,-1,-1,-1,-1,-1,-1,-1,-1,-1,-1,-1,-1,-1,-1],"split_conditions":[4.950734E1,1E0,1.8246077E2,1E0,1E0,5.304753E1,1E0,1E0,4.164919E0,2.301344E2,2.551555E2,1.525022E2,-2.656801E-1,1E0,5.647233E1,1E0,1.668767E0,3.985217E0,1E0,1.47481E0,1E0,2.426573E2,1.726451E1,-2.094069E-1,1E0,1E0,2.326228E2,2.326707E2,-2.5541073E-1,6.735272E0,3E0,-6.373387E-2,-2.9065052E-1,5E0,3.231586E-1,1.824538E2,5.006746E0,1E0,1E0,1E0,5.7018633E0,1.4418902E1,1E0,2.4910396E-1,-6.6080704E-2,2.3455796E-1,-1.6326512E-1,2E0,2.751336E2,-2.5485957E-1,5.883809E1,-1.6145256E-1,1.3712631E-1,4.1864984E-2,-8.572048E-2,-7.329945E-2,-2.45897E-1,2.6813393E-2,2.0744447E-1,2.6009789E-2,2.6624984E-1,-1.6952874E-1,-1.5741328E-2,3.085649E-1,2.1126362E-2,5.114782E-2,-3.0939443E-2,1.3022172E-1,2.983909E-1,2.3924792E-1,-2.9356224E-2,5.4341955E-3,-1.1288218E-1,4.3852754E-2,-2.9163364E-1,2.7206704E-1,1.0842089E-2,-7.806863E-2,1.3764209E-1,6.322101E-2,-1.2357014E-1],"split_indices":[0,3,1,2,5,0,5,5,0,1,1,1,0,4,0,4,0,0,9,0,4,1,0,0,6,7,1,1,0,0,8,0,0,8,0,1,0,10,4,6,0,0,7,0,0,0,0,8,1,0,0,0,0,0,0,0,0,0,0,0,0,0,0,0,0,0,0,0,0,0,0,0,0,0,0,0,0,0,0,0,0],"split_type":[0,0,0,0,0,0,0,0,0,0,0,0,0,0,0,0,0,0,0,0,0,0,0,0,0,0,0,0,0,0,0,0,0,0,0,0,0,0,0,0,0,0,0,0,0,0,0,0,0,0,0,0,0,0,0,0,0,0,0,0,0,0,0,0,0,0,0,0,0,0,0,0,0,0,0,0,0,0,0,0,0],"sum_hessian":[6.867335E2,5.5761816E2,1.2911534E2,2.796692E2,2.7794897E2,2.728552E1,1.0182983E2,1.16703995E2,1.6296521E2,2.1721638E2,6.0732597E1,4.467691E0,2.2817831E1,9.494944E1,6.880388E0,1.0595864E2,1.07453575E1,3.7626083E1,1.2533913E2,1.8200426E2,3.5212128E1,5.699489E1,3.737709E0,2.152581E0,2.3151097E0,8.194566E1,1.3003777E1,2.098684E0,4.7817035E0,9.2748276E1,1.32103615E1,1.0499406E0,9.695417E0,3.530948E1,2.3166065E0,9.887674E0,1.1545145E2,6.208627E0,1.7579564E2,1.9207829E1,1.6004301E1,5.256074E1,4.434147E0,2.718704E0,1.0190051E0,1.2097285E0,1.1053813E0,4.7209396E1,3.4736263E1,4.8374143E0,8.166363E0,1.0973092E0,1.0013748E0,4.0448483E1,5.2299797E1,2.6717854E0,1.0538576E1,2.8080715E1,7.2287626E0,5.838494E0,4.0491805E0,1.0005545E1,1.0544591E2,4.980842E0,1.2277852E0,1.3724287E2,3.8552753E1,5.5807643E0,1.3627064E1,2.7279396E0,1.32763605E1,3.9943398E1,1.2617347E1,1.65503E0,2.7791169E0,2.6150947E0,4.4594303E1,3.1352217E1,3.3840463E0,3.4243662E0,4.7419963E0],"tree_param":{"num_deleted":"0","num_feature":"11","num_nodes":"81","size_leaf_vector":"1"}},{"base_weights":[-2.4089755E-2,7.919303E-2,-1.2398835E-1,2.4531934E-2,3.2653132E-1,-3.00529E-1,-2.3230588E-2,1.0812149E-1,-9.50379E-2,6.927503E-1,1.4854091E-1,-1.5526491E-1,-6.342326E-1,5.189517E-2,-1.9191708E-1,-9.001571E-2,2.1725236E-1,-1.632606E-1,2.8055033E-1,-5.0014723E-2,7.5896865E-1,3.8259122E-1,-1.4509942E-1,-6.779448E-2,-4.6621612E-1,-2.829068E-1,-4.474745E-1,1.3670764E-2,7.2473705E-1,-5.461058E-1,-5.5693604E-2,-6.476384E-1,5.082779E-2,6.644087E-1,1.35957E-1,-1.02416E-1,-5.0634485E-1,-1.7376564E-1,4.543967E-1,8.769578E-1,4.8680952E-1,9.896627E-1,1.8219984E-1,-4.1613612E-1,4.128989E-1,4.9319635E-3,-6.5145046E-1,2.873388E-1,-6.764565E-1,-1.8197677E-1,-7.274885E-1,-6.8222266E-3,6.989743E-1,3.1407818E-1,-8.1807084E-2,-6.2903756E-1,1.1263593E-1,9.236617E-2,-2.6481587E-1,-2.945367E-1,1.894469E-3,6.74392E-2,-7.455939E-2,2.461557E-1,-1.8453723E-1,-1.14541404E-1,6.995487E-2,-1.6425517E-1,-8.710195E-3,4.751951E-2,-1.8331969E-1,2.017535E-1,-2.7871108E-1,1.8589716E-1,-5.606507E-2,2.7738267E-1,8.48659E-2,4.819436E-2,2.349098E-1,3.3753747E-1,9.167686E-2,-9.160288E-2,1.3571784E-1,-1.8571372E-1,2.9289448E-1,2.0525448E-1,-1.14106815E-2,1.4033939E-1,-2.4785059E-2,-2.610766E-1,-5.1846292E-2,-2.9859048E-1,-9.11633E-2,-1.2722869E-1,7.739013E-2,-2.7731386E-1,-1.3083439E-1,-1.3182334E-2,1.2528302E-1,4.856004E-2,3.017851E-1,-2.5959337E-1,-9.849901E-2,-1.6696181E-2,1.5928303E-1,-3.8937304E-2,-2.5050384E-1],"categories":[],"categories_nodes":[],"categories_segments":[],"categories_sizes":[],"default_left":[0,0,0,0,0,0,0,0,0,0,0,0,0,0,0,0,0,0,0,0,0,0,0,0,0,0,0,0,0,0,0,0,0,0,0,0,0,0,0,0,0,0,0,0,0,0,0,0,0,0,0,0,0,0,0,0,0,0,0,0,0,0,0,0,0,0,0,0,0,0,0,0,0,0,0,0,0,0,0,0,0,0,0,0,0,0,0,0,0,0,0,0,0,0,0,0,0,0,0,0,0,0,0,0,0,0,0],"id":12,"left_children":[1,3,5,7,9,11,13,15,17,19,21,23,25,27,29,31,33,35,37,-1,39,41,43,45,47,-1,49,51,53,55,57,59,61,63,65,67,69,71,73,75,77,79,81,83,85,87,89,-1,91,93,95,97,99,-1,-1,101,-1,103,105,-1,-1,-1,-1,-1,-1,-1,-1,-1,-1,-1,-1,-1,-1,-1,-1,-1,-1,-1,-1,-1,-1,-1,-1,-1,-1,-1,-1,-1,-1,-1,-1,-1,-1,-1,-1,-1,-1,-1,-1,-1,-1,-1,-1,-1,-1,-1,-1],"loss_changes":[6.880257E0,4.426554E0,6.0208926E0,2.706057E0,3.7616258E0,5.8663225E0,2.75775E0,3.4621615E0,2.90303E0,1.2145605E0,2.8849435E0,2.336174E0,1.7114706E0,3.8686109E0,3.2034056E0,4.529451E0,3.6523676E0,1.9312222E0,1.461825E0,0E0,1.4885616E-1,2.6400852E0,3.0431E0,2.9368248E0,6.318808E0,0E0,1.7228785E0,2.023108E0,2.8844786E0,1.6503601E0,1.557726E0,2.5448909E0,2.4846203E0,3.6170883E0,4.537889E0,2.6605403E0,1.0752838E0,4.1843224E0,1.4871416E0,5.7188988E-2,6.152766E-1,1.6843796E-1,2.5957174E0,4.3555155E0,8.4671295E-1,2.5692086E0,6.5233445E-1,0E0,1.7278891E0,1.6159334E0,2.7451134E-1,2.2323828E0,5.2677846E-1,0E0,0E0,9.4859314E-1,0E0,1.9598445E0,1.4919297E0,0E0,0E0,0E0,0E0,0E0,0E0,0E0,0E0,0E0,0E0,0E0,0E0,0E0,0E0,0E0,0E0,0E0,0E0,0E0,0E0,0E0,0E0,0E0,0E0,0E0,0E0,0E0,0E0,0E0,0E0,0E0,0E0,0E0,0E0,0E0,0E0,0E0,0E0,0E0,0E0,0E0,0E0,0E0,0E0,0E0,0E0,0E0,0E0],"parents":[2147483647,0,0,1,1,2,2,3,3,4,4,5,5,6,6,7,7,8,8,9,9,10,10,11,11,12,12,13,13,14,14,15,15,16,16,17,17,18,18,20,20,21,21,22,22,23,23,24,24,26,26,27,27,28,28,29,29,30,30,31,31,32,32,33,33,34,34,35,35,36,36,37,37,38,38,39,39,40,40,41,41,42,42,43,43,44,44,45,45,46,46,48,48,49,49,50,50,51,51,52,52,55,55,57,57,58,58],"right_children":[2,4,6,8,10,12,14,16,18,20,22,24,26,28,30,32,34,36,38,-1,40,42,44,46,48,-1,50,52,54,56,58,60,62,64,66,68,70,72,74,76,78,80,82,84,86,88,90,-1,92,94,96,98,100,-1,-1,102,-1,104,106,-1,-1,-1,-1,-1,-1,-1,-1,-1,-1,-1,-1,-1,-1,-1,-1,-1,-1,-1,-1,-1,-1,-1,-1,-1,-1,-1,-1,-1,-1,-1,-1,-1,-1,-1,-1,-1,-1,-1,-1,-1,-1,-1,-1,-1,-1,-1,-1],"split_conditions":[1.022422E1,2.024433E2,1E0,1E0,1E0,3.688134E1,5.762165E1,1.3743915E2,1.849853E2,1.2771362E0,4E0,1E0,1E0,5.623842E1,2.1015628E2,3E0,1.399875E2,1.8246077E2,2.8719995E0,-5.0014723E-2,1E0,2.0749738E2,5E0,1E0,1E0,-2.829068E-1,1E0,6E0,2.45175E2,7.111027E1,1E0,1E0,1.274601E2,1E0,1.4994467E2,1.449607E2,1E0,1.924885E2,1.949768E2,9.543016E0,6.864219E0,5.7018633E0,2.2011852E2,9.797427E0,2.299931E2,3E0,1.7251044E2,2.873388E-1,1E0,1.824833E2,5.809117E1,2.626106E2,1.85303E1,3.1407818E-1,-8.1807084E-2,4E0,1.1263593E-1,2.52624E2,6.926448E1,-2.945367E-1,1.894469E-3,6.74392E-2,-7.455939E-2,2.461557E-1,-1.8453723E-1,-1.14541404E-1,6.995487E-2,-1.6425517E-1,-8.710195E-3,4.751951E-2,-1.8331969E-1,2.017535E-1,-2.7871108E-1,1.8589716E-1,-5.606507E-2,2.7738267E-1,8.48659E-2,4.819436E-2,2.349098E-1,3.3753747E-1,9.167686E-2,-9.160288E-2,1.3571784E-1,-1.8571372E-1,2.9289448E-1,2.0525448E-1,-1.14106815E-2,1.4033939E-1,-2.4785059E-2,-2.610766E-1,-5.1846292E-2,-2.9859048E-1,-9.11633E-2,-1.2722869E-1,7.739013E-2,-2.7731386E-1,-1.3083439E-1,-1.3182334E-2,1.2528302E-1,4.856004E-2,3.017851E-1,-2.5959337E-1,-9.849901E-2,-1.6696181E-2,1.5928303E-1,-3.8937304E-2,-2.5050384E-1],"split_indices":[0,1,3,7,7,0,0,1,1,0,8,10,2,0,1,8,1,1,0,0,4,1,8,5,9,0,7,8,1,0,7,3,1,5,1,1,9,1,1,0,0,0,1,0,1,8,1,0,6,1,0,1,0,0,0,8,0,1,0,0,0,0,0,0,0,0,0,0,0,0,0,0,0,0,0,0,0,0,0,0,0,0,0,0,0,0,0,0,0,0,0,0,0,0,0,0,0,0,0,0,0,0,0,0,0,0,0],"split_type":[0,0,0,0,0,0,0,0,0,0,0,0,0,0,0,0,0,0,0,0,0,0,0,0,0,0,0,0,0,0,0,0,0,0,0,0,0,0,0,0,0,0,0,0,0,0,0,0,0,0,0,0,0,0,0,0,0,0,0,0,0,0,0,0,0,0,0,0,0,0,0,0,0,0,0,0,0,0,0,0,0,0,0,0,0,0,0,0,0,0,0,0,0,0,0,0,0,0,0,0,0,0,0,0,0,0,0],"sum_hessian":[6.648817E2,3.270056E2,3.3787607E2,2.687187E2,5.828693E1,1.2204854E2,2.1582753E2,1.5821123E2,1.1050746E2,1.8117575E1,4.0169353E1,8.605383E1,3.599471E1,1.4980371E2,6.602382E1,5.62533E1,1.0195793E2,9.399865E1,1.6508806E1,1.1874661E0,1.6930107E1,2.2184196E1,1.7985159E1,6.8111984E1,1.7941849E1,1.2039269E1,2.395544E1,1.4271626E2,7.0874486E0,1.750387E1,4.8519947E1,1.0617718E1,4.5635582E1,1.4581451E1,8.737648E1,8.094237E1,1.3056282E1,4.5690045E0,1.1939801E1,1.0259909E1,6.670199E0,4.5280724E0,1.7656124E1,1.2276382E1,5.708777E0,6.1446938E1,6.6650443E0,1.8507209E0,1.6091127E1,1.3143345E1,1.0812096E1,1.3953377E2,3.182506E0,5.3195076E0,1.767941E0,1.6349947E1,1.1539235E0,2.873425E1,1.9785698E1,6.6953034E0,3.922414E0,2.9019981E1,1.66156E1,1.3315607E1,1.2658446E0,1.3350966E1,7.402551E1,1.0541477E1,7.0400894E1,1.7071449E0,1.1349137E1,2.206363E0,2.3626413E0,9.520142E0,2.4196599E0,8.98298E0,1.2769288E0,3.9087365E0,2.7614625E0,3.241448E0,1.2866244E0,6.2494216E0,1.1406702E1,1.1199766E1,1.0766158E0,3.2414591E0,2.4673178E0,9.082891E0,5.2364048E1,4.0125084E0,2.6525364E0,7.7701845E0,8.320943E0,8.500952E0,4.6423936E0,5.155719E0,5.656377E0,1.2913655E2,1.0397214E1,1.7128589E0,1.4696473E0,8.104473E0,8.245474E0,2.2136328E1,6.597921E0,1.6990019E1,2.7956786E0],"tree_param":{"num_deleted":"0","num_feature":"11","num_nodes":"107","size_leaf_vector":"1"}},{"base_weights":[-1.8598387E-2,2.4146643E-2,-2.2534338E-1,7.979148E-2,-2.1652973E-1,-1.2993073E-1,-5.4873747E-1,-6.491089E-1,9.0191856E-2,-1.2894139E-1,-8.055781E-1,-3.2768106E-1,2.4222152E-2,-2.5687242E-1,-1.530356E-1,1.7709631E-3,-2.5863317E-1,2.1302195E-1,2.889073E-2,-2.5486434E-1,-8.4480785E-2,-2.76444E-1,-3.4178206E-1,-2.4957682E-1,-7.68639E-1,3.0604273E-1,-1.0962397E-1,1.3441648E-1,-4.5927352E-1,1.6045682E-1,8.1953555E-1,7.584797E-2,-1.5167865E-1,2.7464056E-1,-1.332726E-1,1.07074864E-1,-2.1300411E-1,-3.4052157E-1,4.8114282E-1,-9.0519175E-2,-2.654207E-1,5.422093E-1,5.8135793E-2,-3.7348688E-1,-3.1077832E-2,-2.3041007E-1,5.6501454E-1,1.4302954E-1,-2.5531894E-1,8.895371E-2,4.714059E-3,1.0055346E-1,2.7980715E-1,-5.045863E-2,3.8081497E-2,1.2219501E-1,-7.241569E-2,-1.2820084E-1,1.4915672E-1,-1.1981447E-1,-9.361616E-3,-3.8439743E-2,-2.2677548E-1,3.4388018E-1,-1.9889258E-1,2.0904383E-3,2.3830168E-1,1.1358558E-1,-9.677967E-2,5.9392754E-2,-6.862683E-2,5.847696E-2,-2.1053958E-1,3.225513E-1,-5.695991E-2],"categories":[],"categories_nodes":[],"categories_segments":[],"categories_sizes":[],"default_left":[0,0,0,0,0,0,0,0,0,0,0,0,0,0,0,0,0,0,0,0,0,0,0,0,0,0,0,0,0,0,0,0,0,0,0,0,0,0,0,0,0,0,0,0,0,0,0,0,0,0,0,0,0,0,0,0,0,0,0,0,0,0,0,0,0,0,0,0,0,0,0,0,0,0,0],"id":13,"left_children":[1,3,5,7,9,11,13,15,17,19,21,23,25,-1,27,-1,-1,29,31,-1,33,-1,35,37,39,41,43,45,47,49,51,53,55,57,59,-1,-1,61,63,-1,-1,65,67,-1,69,71,73,-1,-1,-1,-1,-1,-1,-1,-1,-1,-1,-1,-1,-1,-1,-1,-1,-1,-1,-1,-1,-1,-1,-1,-1,-1,-1,-1,-1],"loss_changes":[5.7551847E0,7.249886E0,3.3712125E0,3.3893363E0,5.1423616E0,2.674059E0,2.9239874E0,8.8447356E-1,3.2622056E0,2.8024583E0,3.8236237E-1,1.1300416E0,1.922562E0,0E0,1.1353903E0,0E0,0E0,4.470684E0,2.4764786E0,0E0,1.5366491E0,0E0,1.329667E0,2.42908E0,2.0043373E-2,9.2803156E-1,3.0547974E0,1.2400335E0,2.6544628E0,2.6358652E0,3.0503416E-1,2.9062881E0,3.1236782E0,1.8632252E0,2.0529091E0,0E0,0E0,2.6292725E0,3.946382E0,0E0,0E0,1.1109524E0,1.23447E0,0E0,1.5608034E0,1.046024E0,1.5635774E0,0E0,0E0,0E0,0E0,0E0,0E0,0E0,0E0,0E0,0E0,0E0,0E0,0E0,0E0,0E0,0E0,0E0,0E0,0E0,0E0,0E0,0E0,0E0,0E0,0E0,0E0,0E0,0E0],"parents":[2147483647,0,0,1,1,2,2,3,3,4,4,5,5,6,6,7,7,8,8,9,9,10,10,11,11,12,12,14,14,17,17,18,18,20,20,22,22,23,23,24,24,25,25,26,26,27,27,28,28,29,29,30,30,31,31,32,32,33,33,34,34,37,37,38,38,41,41,42,42,44,44,45,45,46,46],"right_children":[2,4,6,8,10,12,14,16,18,20,22,24,26,-1,28,-1,-1,30,32,-1,34,-1,36,38,40,42,44,46,48,50,52,54,56,58,60,-1,-1,62,64,-1,-1,66,68,-1,70,72,74,-1,-1,-1,-1,-1,-1,-1,-1,-1,-1,-1,-1,-1,-1,-1,-1,-1,-1,-1,-1,-1,-1,-1,-1,-1,-1,-1,-1],"split_conditions":[1E0,1E0,1.99897E1,1.049629E2,4.359094E1,1.824433E2,2.226792E2,4.164919E0,7.458099E0,1.2994832E2,2.351417E2,1.7247417E2,5.7018633E0,-2.5687242E-1,1E0,1.7709631E-3,-2.5863317E-1,2.049797E2,1E0,-2.5486434E-1,2.1531672E0,-2.76444E-1,2.426281E2,1.699671E2,1E0,4E0,6.038648E0,5.647233E1,1E0,1E0,1E0,1.424526E2,3E0,1.2771362E0,5.006746E0,1.07074864E-1,-2.1300411E-1,7.349621E0,4E0,-9.0519175E-2,-2.654207E-1,2.680333E0,1.976288E2,-3.7348688E-1,1E0,4.551779E1,6.174695E1,1.4302954E-1,-2.5531894E-1,8.895371E-2,4.714059E-3,1.0055346E-1,2.7980715E-1,-5.045863E-2,3.8081497E-2,1.2219501E-1,-7.241569E-2,-1.2820084E-1,1.4915672E-1,-1.1981447E-1,-9.361616E-3,-3.8439743E-2,-2.2677548E-1,3.4388018E-1,-1.9889258E-1,2.0904383E-3,2.3830168E-1,1.1358558E-1,-9.677967E-2,5.9392754E-2,-6.862683E-2,5.847696E-2,-2.1053958E-1,3.225513E-1,-5.695991E-2],"split_indices":[4,5,0,1,0,1,1,0,0,1,1,1,0,0,7,0,0,1,10,0,0,0,1,1,2,8,0,0,9,7,3,1,8,0,0,0,0,0,8,0,0,0,1,0,7,0,0,0,0,0,0,0,0,0,0,0,0,0,0,0,0,0,0,0,0,0,0,0,0,0,0,0,0,0,0],"split_type":[0,0,0,0,0,0,0,0,0,0,0,0,0,0,0,0,0,0,0,0,0,0,0,0,0,0,0,0,0,0,0,0,0,0,0,0,0,0,0,0,0,0,0,0,0,0,0,0,0,0,0,0,0,0,0,0,0,0,0,0,0,0,0,0,0,0,0,0,0,0,0,0,0,0,0],"sum_hessian":[6.4962067E2,5.3905334E2,1.10567375E2,4.3836984E2,1.0068348E2,8.646031E1,2.4107061E1,5.302987E0,4.3306686E2,8.871146E1,1.1972021E1,3.7381237E1,4.907907E1,1.2910404E1,1.1196658E1,1.5398874E0,3.7631E0,1.4335301E2,2.8971384E2,4.1030107E0,8.4608444E1,8.788876E0,3.183146E0,3.3086765E1,4.294474E0,1.5389365E1,3.3689705E1,6.0648866E0,5.131771E0,1.3308354E2,1.0269484E1,2.3038257E2,5.9331257E1,9.566623E0,7.5041824E1,1.1092111E0,2.073935E0,2.989949E1,3.1872745E0,1.571858E0,2.7226162E0,7.273333E0,8.116032E0,1.2190561E0,3.247065E1,3.5348623E0,2.5300245E0,1.4501866E0,3.6815846E0,6.8060036E1,6.50235E1,2.695134E0,7.5743494E0,3.9484535E1,1.9089804E2,7.715122E0,5.1616135E1,2.0813384E0,7.485285E0,1.9995853E1,5.504597E1,2.0649843E1,9.249646E0,2.014362E0,1.1729124E0,2.6581125E0,4.6152205E0,4.4097176E0,3.7063143E0,1.5040927E1,1.7429724E1,2.1665123E0,1.36835E0,1.2565454E0,1.2734791E0],"tree_param":{"num_deleted":"0","num_feature":"11","num_nodes":"75","size_leaf_vector":"1"}},{"base_weights":[-1.7232675E-2,-1.04567684E-1,5.099668E-2,-6.536678E-2,-7.6258343E-1,1.3028863E-1,-5.6704998E-2,-2.6238844E-2,-3.3828157E-1,-8.6804026E-1,-1.3754675E-1,4.5449045E-1,9.848242E-2,-1.8670551E-1,7.304554E-2,2.2049697E-2,-3.2763726E-1,-8.4466165E-1,-1.6263163E-1,-9.310639E-2,-2.7934527E-1,-1.7757274E-1,1.4366752E-1,7.417314E-1,-1.782285E-1,2.5361502E-3,2.3271932E-1,-3.8520434E-1,-3.133721E-2,-3.5765424E-1,2.291722E-1,3.3006677E-3,6.051275E-1,-1.1000471E-1,-7.118881E-1,-7.6897904E-2,-2.7074885E-1,2.2369161E-1,-3.4513173E-1,3.0247748E-1,8.406897E-2,1.6277628E-1,-2.1460302E-1,-1.9952364E-2,3.8012695E-1,-2.0825647E-1,2.6476544E-1,-4.596585E-1,4.1534752E-1,4.7464266E-1,-1.628993E-1,-8.01043E-1,-1.5299751E-1,3.5584658E-1,-4.4186077E-1,1.4331096E-2,-8.1842005E-2,-2.6431242E-2,3.0290115E-1,-7.719588E-2,2.7207208E-1,-2.3050237E-1,-1.9471304E-2,-8.03529E-2,2.9062703E-1,7.797055E-2,-1.7027903E-1,-1.5544832E-1,2.4792953E-1,-1.37498E-1,2.2597918E-1,-1.13327885E-2,1.951188E-1,2.2685474E-1,-6.0922798E-2,1.2723775E-1,2.867121E-2,-1.9476652E-1,-5.5187337E-2,-3.7089348E-2,2.3147683E-1,2.7686843E-1,5.1823046E-2,1.4785606E-1,-6.677708E-2,-1.385744E-1,-3.8434476E-1,1.4262402E-1,-1.1071764E-1,3.0076277E-1,5.2659556E-2,2.6155224E-3,-2.3316938E-1],"categories":[],"categories_nodes":[],"categories_segments":[],"categories_sizes":[],"default_left":[0,0,0,0,0,0,0,0,0,0,0,0,0,0,0,0,0,0,0,0,0,0,0,0,0,0,0,0,0,0,0,0,0,0,0,0,0,0,0,0,0,0,0,0,0,0,0,0,0,0,0,0,0,0,0,0,0,0,0,0,0,0,0,0,0,0,0,0,0,0,0,0,0,0,0,0,0,0,0,0,0,0,0,0,0,0,0,0,0,0,0,0,0],"id":14,"left_children":[1,3,5,7,9,11,13,15,17,19,21,23,25,27,29,31,33,35,37,-1,-1,-1,-1,39,41,43,45,47,49,51,53,55,57,59,61,-1,-1,63,65,-1,67,69,-1,71,73,-1,75,77,79,81,83,85,87,89,91,-1,-1,-1,-1,-1,-1,-1,-1,-1,-1,-1,-1,-1,-1,-1,-1,-1,-1,-1,-1,-1,-1,-1,-1,-1,-1,-1,-1,-1,-1,-1,-1,-1,-1,-1,-1,-1,-1],"loss_changes":[3.7912266E0,7.1465144E0,3.0591896E0,2.814466E0,9.0835E-1,2.0807703E0,2.581393E0,3.3884861E0,2.803963E0,1.739397E-1,1.2467424E0,3.4288704E0,2.4335132E0,2.3417566E0,5.2534695E0,2.19732E0,2.6098158E0,5.033779E-2,1.8955564E0,0E0,0E0,0E0,0E0,2.135973E0,1.3014616E0,9.520482E-1,2.5234156E0,2.1829925E0,2.9997244E0,1.7695866E0,5.00707E0,2.4185793E0,1.8450701E0,3.4848316E0,3.6798143E-1,0E0,0E0,3.5120695E0,2.5580986E0,0E0,2.5494378E0,2.0954065E0,0E0,1.290143E0,1.5356641E0,0E0,2.0317469E0,1.5034556E0,7.422941E-1,1.1011314E0,1.5026418E0,4.4195318E-1,2.2803476E0,5.4852333E0,1.4432857E0,0E0,0E0,0E0,0E0,0E0,0E0,0E0,0E0,0E0,0E0,0E0,0E0,0E0,0E0,0E0,0E0,0E0,0E0,0E0,0E0,0E0,0E0,0E0,0E0,0E0,0E0,0E0,0E0,0E0,0E0,0E0,0E0,0E0,0E0,0E0,0E0,0E0,0E0],"parents":[2147483647,0,0,1,1,2,2,3,3,4,4,5,5,6,6,7,7,8,8,9,9,10,10,11,11,12,12,13,13,14,14,15,15,16,16,17,17,18,18,23,23,24,24,25,25,26,26,27,27,28,28,29,29,30,30,31,31,32,32,33,33,34,34,37,37,38,38,40,40,41,41,43,43,44,44,46,46,47,47,48,48,49,49,50,50,51,51,52,52,53,53,54,54],"right_children":[2,4,6,8,10,12,14,16,18,20,22,24,26,28,30,32,34,36,38,-1,-1,-1,-1,40,42,44,46,48,50,52,54,56,58,60,62,-1,-1,64,66,-1,68,70,-1,72,74,-1,76,78,80,82,84,86,88,90,92,-1,-1,-1,-1,-1,-1,-1,-1,-1,-1,-1,-1,-1,-1,-1,-1,-1,-1,-1,-1,-1,-1,-1,-1,-1,-1,-1,-1,-1,-1,-1,-1,-1,-1,-1,-1,-1,-1],"split_conditions":[1E0,5.145585E1,1.6917768E1,1E0,6.910375E1,1E0,4E0,1E0,1E0,3E0,1.724404E2,1E0,1E0,1E0,1E0,6E0,7.349621E0,1.75453E0,1.5496176E2,-9.310639E-2,-2.7934527E-1,-1.7757274E-1,1.4366752E-1,1E0,2.226362E2,2.376549E2,1.499913E2,6.893363E1,4.293116E1,1.99897E1,6.686003E1,5E0,1E0,6.631092E0,1.974725E2,-7.6897904E-2,-2.7074885E-1,1.424855E2,3.985217E0,3.0247748E-1,2.149663E2,1.949744E2,-2.1460302E-1,1.6336493E1,1E0,-2.0825647E-1,1E0,2.2011852E2,2.049496E2,3E0,1.849853E2,1.904207E1,2.9705275E1,2.1012704E2,2.326378E2,1.4331096E-2,-8.1842005E-2,-2.6431242E-2,3.0290115E-1,-7.719588E-2,2.7207208E-1,-2.3050237E-1,-1.9471304E-2,-8.03529E-2,2.9062703E-1,7.797055E-2,-1.7027903E-1,-1.5544832E-1,2.4792953E-1,-1.37498E-1,2.2597918E-1,-1.13327885E-2,1.951188E-1,2.2685474E-1,-6.0922798E-2,1.2723775E-1,2.867121E-2,-1.9476652E-1,-5.5187337E-2,-3.7089348E-2,2.3147683E-1,2.7686843E-1,5.1823046E-2,1.4785606E-1,-6.677708E-2,-1.385744E-1,-3.8434476E-1,1.4262402E-1,-1.1071764E-1,3.0076277E-1,5.2659556E-2,2.6155224E-3,-2.3316938E-1],"split_indices":[2,0,0,5,0,9,8,4,3,8,1,4,6,6,3,8,0,0,1,0,0,0,0,5,1,1,1,0,0,0,0,8,6,0,1,0,0,1,0,0,1,1,0,0,5,0,7,1,1,8,1,0,0,1,1,0,0,0,0,0,0,0,0,0,0,0,0,0,0,0,0,0,0,0,0,0,0,0,0,0,0,0,0,0,0,0,0,0,0,0,0,0,0],"split_type":[0,0,0,0,0,0,0,0,0,0,0,0,0,0,0,0,0,0,0,0,0,0,0,0,0,0,0,0,0,0,0,0,0,0,0,0,0,0,0,0,0,0,0,0,0,0,0,0,0,0,0,0,0,0,0,0,0,0,0,0,0,0,0,0,0,0,0,0,0,0,0,0,0,0,0,0,0,0,0,0,0,0,0,0,0,0,0,0,0,0,0,0,0],"sum_hessian":[6.343438E2,2.7798483E2,3.56359E2,2.633927E2,1.4592128E1,2.0512933E2,1.5122969E2,2.3132382E2,3.206887E1,1.2152897E1,2.4392314E0,1.7139221E1,1.8799011E2,7.53228E1,7.590688E1,2.0017899E2,3.114483E1,7.278102E0,2.479077E1,1.8370649E0,1.0315832E1,1.4271238E0,1.0121076E0,1.1669311E1,5.469911E0,1.1022518E2,7.776493E1,3.2421604E1,4.29012E1,1.98518E1,5.605508E1,1.9491704E2,5.261951E0,2.0704481E1,1.0440351E1,1.1376058E0,6.1404963E0,7.881404E0,1.6909367E1,7.9246445E0,3.744666E0,3.7720478E0,1.6978635E0,1.04923325E2,5.301854E0,1.90825E0,7.5856674E1,3.0052443E1,2.3691597E0,8.31489E0,3.458631E1,5.3490357E0,1.4502765E1,4.754876E1,8.506323E0,1.685909E2,2.6326141E1,2.2273464E0,3.0346045E0,1.8737091E1,1.9673891E0,9.429957E0,1.0103925E0,5.134548E0,2.7468553E0,4.500679E0,1.2408688E1,2.2342098E0,1.5104563E0,1.9474471E0,1.8246007E0,1.0312503E2,1.7982985E0,3.0430565E0,2.258798E0,3.8287704E1,3.7568974E1,1.7005312E1,1.3047131E1,1.202614E0,1.1665456E0,2.5185094E0,5.796381E0,2.280161E0,3.230615E1,4.2846413E0,1.0643945E0,3.4034677E0,1.1099297E1,9.372932E0,3.8175827E1,4.0453243E0,4.4609985E0],"tree_param":{"num_deleted":"0","num_feature":"11","num_nodes":"93","size_leaf_vector":"1"}},{"base_weights":[-1.3908069E-2,1.741653E-2,-1.742293E-1,5.748026E-2,-1.6324812E-1,-9.489754E-2,-4.4026947E-1,-1.8848965E-2,1.4519453E-1,-9.4636686E-2,-7.367447E-1,4.557706E-3,-2.3276165E-1,-2.778411E-1,-1.315508E-1,3.7288362E-1,-4.3208066E-2,1.78595E-1,-2.167101E-1,-2.3144029E-1,-6.215676E-2,-2.635709E-1,-2.8056145E-1,-7.966797E-2,4.609465E-1,-5.7848895E-1,-7.873376E-2,8.564925E-2,-4.1074008E-1,-1.608496E-1,8.6298144E-1,-2.6753974E-1,1.4205413E-2,6.6192165E-2,3.0670422E-1,-4.3569058E-1,3.8101697E-1,-8.9154094E-2,4.8661408E-1,1.1470518E-1,-2.006637E-1,-1.2053544E-2,-7.323672E-1,-1.6233948E-1,8.0458236E-1,-1.947913E-1,-7.5427526E-1,2.856616E-1,-2.2106183E-1,-1.2058775E-1,4.661418E-1,8.59635E-2,-7.0099354E-1,8.497149E-2,-1.7107634E-1,7.286572E-2,2.821732E-1,-4.489386E-2,-2.9516688E-1,1.6380951E-1,-8.270503E-3,2.7631937E-2,-2.7373192E-1,1.14994444E-1,-2.9553676E-3,-2.3415677E-1,-1.859601E-2,2.2694746E-1,2.0611988E-2,1.3432135E-1,-3.3249125E-2,2.2729668E-1,-3.3533465E-2,-4.8416663E-2,5.8638934E-2,-2.3783068E-4,-3.416669E-1,1.13760635E-1,-2.1082687E-1,3.0140013E-1,9.805531E-2,-2.0487574E-1,9.997615E-2,-2.546969E-1,-9.428734E-2,-3.8719922E-2,2.531389E-1,-2.326789E-1,-3.175693E-2,5.637435E-2,-2.8394642E-1,2.3789607E-1,6.354432E-3,-5.7764668E-2,-2.3618336E-1],"categories":[],"categories_nodes":[],"categories_segments":[],"categories_sizes":[],"default_left":[0,0,0,0,0,0,0,0,0,0,0,0,0,0,0,0,0,0,0,0,0,0,0,0,0,0,0,0,0,0,0,0,0,0,0,0,0,0,0,0,0,0,0,0,0,0,0,0,0,0,0,0,0,0,0,0,0,0,0,0,0,0,0,0,0,0,0,0,0,0,0,0,0,0,0,0,0,0,0,0,0,0,0,0,0,0,0,0,0,0,0,0,0,0,0],"id":15,"left_children":[1,3,5,7,9,11,13,15,17,19,21,23,25,-1,27,29,31,33,35,-1,37,-1,39,41,43,45,47,49,51,53,55,57,59,61,63,65,67,69,71,-1,-1,73,75,77,79,81,83,85,87,89,91,-1,93,-1,-1,-1,-1,-1,-1,-1,-1,-1,-1,-1,-1,-1,-1,-1,-1,-1,-1,-1,-1,-1,-1,-1,-1,-1,-1,-1,-1,-1,-1,-1,-1,-1,-1,-1,-1,-1,-1,-1,-1,-1,-1],"loss_changes":[3.126664E0,3.7821279E0,2.10581E0,2.8640218E0,3.663183E0,1.0932621E0,3.3428378E0,2.205088E0,2.4437838E0,1.8399496E0,3.998146E-1,1.8532E0,1.7331465E0,0E0,9.6233857E-1,3.6789026E0,2.7969465E0,2.6106143E0,2.4255896E0,0E0,1.2735555E0,0E0,1.2438058E0,1.7893586E0,1.7390392E0,5.3680706E-1,1.3215998E0,7.959575E-1,1.5897944E0,1.4925998E0,1.1857653E-1,3.5891957E0,3.8723087E0,2.5844195E0,2.0678568E0,1.6398771E0,5.533639E-1,9.8048E-1,7.412678E-1,0E0,0E0,1.2072201E0,1.1315982E0,1.2910657E0,1.5038085E-1,1.3960248E0,8.373022E-3,1.7874804E0,1.0686593E0,1.9379146E0,4.9499935E-1,0E0,7.372069E-2,0E0,0E0,0E0,0E0,0E0,0E0,0E0,0E0,0E0,0E0,0E0,0E0,0E0,0E0,0E0,0E0,0E0,0E0,0E0,0E0,0E0,0E0,0E0,0E0,0E0,0E0,0E0,0E0,0E0,0E0,0E0,0E0,0E0,0E0,0E0,0E0,0E0,0E0,0E0,0E0,0E0,0E0],"parents":[2147483647,0,0,1,1,2,2,3,3,4,4,5,5,6,6,7,7,8,8,9,9,10,10,11,11,12,12,14,14,15,15,16,16,17,17,18,18,20,20,22,22,23,23,24,24,25,25,26,26,27,27,28,28,29,29,30,30,31,31,32,32,33,33,34,34,35,35,36,36,37,37,38,38,41,41,42,42,43,43,44,44,45,45,46,46,47,47,48,48,49,49,50,50,52,52],"right_children":[2,4,6,8,10,12,14,16,18,20,22,24,26,-1,28,30,32,34,36,-1,38,-1,40,42,44,46,48,50,52,54,56,58,60,62,64,66,68,70,72,-1,-1,74,76,78,80,82,84,86,88,90,92,-1,94,-1,-1,-1,-1,-1,-1,-1,-1,-1,-1,-1,-1,-1,-1,-1,-1,-1,-1,-1,-1,-1,-1,-1,-1,-1,-1,-1,-1,-1,-1,-1,-1,-1,-1,-1,-1,-1,-1,-1,-1,-1,-1],"split_conditions":[1E0,1E0,1.7621037E1,1E0,4.359094E1,1E0,2.001323E2,1.9341716E0,6.491269E1,1.2994832E2,2.351417E2,1.25247E1,1.849853E2,-2.778411E-1,1E0,4E0,1.274887E2,1E0,2.551555E2,-2.3144029E-1,2.551555E2,-2.635709E-1,2.4261063E2,1.116749E1,1E0,4.4832516E0,2.0496336E2,2.45175E2,1E0,1E0,1.174686E2,1.274601E2,1.29995E2,2.199902E2,1E0,6.75017E1,6.686003E1,1.374392E2,2.751336E2,1.1470518E-1,-2.006637E-1,1.776508E2,1.924404E2,4E0,1.565432E1,3.080084E0,1E0,1E0,2.076094E2,2.4261063E2,2.576513E2,8.59635E-2,4.492195E1,8.497149E-2,-1.7107634E-1,7.286572E-2,2.821732E-1,-4.489386E-2,-2.9516688E-1,1.6380951E-1,-8.270503E-3,2.7631937E-2,-2.7373192E-1,1.14994444E-1,-2.9553676E-3,-2.3415677E-1,-1.859601E-2,2.2694746E-1,2.0611988E-2,1.3432135E-1,-3.3249125E-2,2.2729668E-1,-3.3533465E-2,-4.8416663E-2,5.8638934E-2,-2.3783068E-4,-3.416669E-1,1.13760635E-1,-2.1082687E-1,3.0140013E-1,9.805531E-2,-2.0487574E-1,9.997615E-2,-2.546969E-1,-9.428734E-2,-3.8719922E-2,2.531389E-1,-2.326789E-1,-3.175693E-2,5.637435E-2,-2.8394642E-1,2.3789607E-1,6.354432E-3,-5.7764668E-2,-2.3618336E-1],"split_indices":[4,5,0,6,0,7,1,0,0,1,1,0,1,0,7,8,1,3,1,0,1,0,1,0,3,0,1,1,9,7,1,1,1,1,10,0,0,1,1,0,0,1,1,8,0,0,2,3,1,1,1,0,0,0,0,0,0,0,0,0,0,0,0,0,0,0,0,0,0,0,0,0,0,0,0,0,0,0,0,0,0,0,0,0,0,0,0,0,0,0,0,0,0,0,0],"split_type":[0,0,0,0,0,0,0,0,0,0,0,0,0,0,0,0,0,0,0,0,0,0,0,0,0,0,0,0,0,0,0,0,0,0,0,0,0,0,0,0,0,0,0,0,0,0,0,0,0,0,0,0,0,0,0,0,0,0,0,0,0,0,0,0,0,0,0,0,0,0,0,0,0,0,0,0,0,0,0,0,0,0,0,0,0,0,0,0,0,0,0,0,0,0,0],"sum_hessian":[6.209894E2,5.202341E2,1.0075533E2,4.2636606E2,9.386801E1,7.865695E1,2.209838E1,2.2839828E2,1.9796777E2,8.4878426E1,8.989586E0,4.62553E1,3.2401653E1,7.8087997E0,1.4289579E1,1.25334215E1,2.1586487E2,1.8170462E2,1.6263155E1,2.8448138E0,8.203361E1,6.151274E0,2.838312E0,3.974574E1,6.509561E0,9.137069E0,2.3264585E1,8.4269285E0,5.8626513E0,6.32121E0,6.2122116E0,4.324272E1,1.7262215E2,9.7593185E1,8.411144E1,1.2100984E1,4.162172E0,7.898538E1,3.0482266E0,1.0541306E0,1.7841814E0,3.6937748E1,2.8079884E0,2.5009415E0,4.0086193E0,3.5331652E0,5.603904E0,6.2516747E0,1.701291E1,5.9078126E0,2.519116E0,1.7268828E0,4.1357684E0,3.1799927E0,3.1412172E0,1.1502554E0,5.061956E0,3.816981E1,5.07291E0,1.1692498E1,1.6092964E2,9.5958084E1,1.6350999E0,6.755206E1,1.6559378E1,5.727433E0,6.373551E0,1.2441509E0,2.918021E0,2.3024065E0,7.6682976E1,1.9147772E0,1.1334493E0,2.1609312E1,1.5328438E1,1.3608907E0,1.4470975E0,1.3981733E0,1.1027682E0,2.047912E0,1.9607075E0,1.6835685E0,1.8495967E0,3.8463235E0,1.7575804E0,4.0276437E0,2.2240307E0,1.9404372E0,1.5072474E1,4.863573E0,1.0442393E0,1.0013925E0,1.5177233E0,1.0688651E0,3.0669034E0],"tree_param":{"num_deleted":"0","num_feature":"11","num_nodes":"95","size_leaf_vector":"1"}},{"base_weights":[-1.3337708E-2,-8.619608E-2,4.2794995E-2,-5.770289E-2,-6.8402565E-1,2.4376562E-1,8.895177E-3,-6.13747E-1,-4.3925E-2,-8.143505E-1,-6.100933E-2,3.573671E-1,-3.701543E-2,8.609284E-2,-8.605097E-2,-3.8914017E-2,-2.425192E-1,-1.3913804E-1,1.7610088E-2,-6.85344E-2,-2.6869088E-1,-1.6178437E-1,1.4548187E-1,-2.3389806E-1,4.184166E-1,1.2787399E-1,-5.581946E-1,-1.7788391E-1,1.4001441E-1,-2.8166062E-1,-6.1413433E-2,-9.547824E-2,-7.639185E-1,6.108333E-1,-4.385697E-3,-3.6285752E-1,1.6565257E-1,9.334552E-2,5.8118397E-1,-1.7752853E-1,5.2905613E-1,2.324213E-2,-2.5610238E-1,1.2225861E-1,-9.949753E-1,6.639351E-1,1.0755376E-1,3.2475162E-1,-1.14986256E-1,-1.0388327E-2,-1.3851593E-1,-5.846622E-2,-2.575862E-1,6.797151E-2,2.628089E-1,-6.4439856E-2,1.2982617E-2,1.6384502E-1,-1.0362447E-1,2.5844416E-1,8.7020814E-2,-1.6998543E-1,5.119122E-2,2.3952433E-1,6.501607E-2,-1.8239046E-2,2.147563E-1,-3.2939363E-1,-1.01947315E-1,2.4890153E-1,1.2981147E-2,2.2562096E-1,2.4770165E-2,-9.468884E-2,1.22049786E-1,-2.7670376E-2,-2.3570943E-1],"categories":[],"categories_nodes":[],"categories_segments":[],"categories_sizes":[],"default_left":[0,0,0,0,0,0,0,0,0,0,0,0,0,0,0,0,0,0,0,0,0,0,0,0,0,0,0,0,0,0,0,0,0,0,0,0,0,0,0,0,0,0,0,0,0,0,0,0,0,0,0,0,0,0,0,0,0,0,0,0,0,0,0,0,0,0,0,0,0,0,0,0,0,0,0,0,0],"id":16,"left_children":[1,3,5,7,9,11,13,15,17,19,21,23,25,27,29,-1,-1,31,33,-1,-1,-1,-1,35,37,39,41,43,45,-1,47,49,51,53,55,-1,-1,57,59,61,63,-1,-1,65,67,69,71,73,75,-1,-1,-1,-1,-1,-1,-1,-1,-1,-1,-1,-1,-1,-1,-1,-1,-1,-1,-1,-1,-1,-1,-1,-1,-1,-1,-1,-1],"loss_changes":[2.4986267E0,4.488269E0,2.34993E0,1.9251311E0,9.246588E-1,1.6014678E0,2.1802814E0,4.6834993E-1,1.4655509E0,2.641778E-1,1.0858359E0,1.380868E0,1.3818163E0,2.3594005E0,2.746159E0,0E0,0E0,2.6042702E0,1.9935386E0,0E0,0E0,0E0,0E0,3.7109349E0,1.6693649E0,1.6128954E0,7.895137E-1,7.0520573E0,2.2542477E0,0E0,2.7426288E0,2.053897E0,1.7042065E-1,3.5813093E-1,1.4946522E0,0E0,0E0,2.5846925E0,1.5057435E0,1.1516801E0,2.9891813E-1,0E0,0E0,2.3860388E0,1.4657974E-1,7.6491165E-1,2.0308676E0,9.795426E-1,1.6911646E0,0E0,0E0,0E0,0E0,0E0,0E0,0E0,0E0,0E0,0E0,0E0,0E0,0E0,0E0,0E0,0E0,0E0,0E0,0E0,0E0,0E0,0E0,0E0,0E0,0E0,0E0,0E0,0E0],"parents":[2147483647,0,0,1,1,2,2,3,3,4,4,5,5,6,6,7,7,8,8,9,9,10,10,11,11,12,12,13,13,14,14,17,17,18,18,23,23,24,24,25,25,26,26,27,27,28,28,30,30,31,31,32,32,33,33,34,34,37,37,38,38,39,39,40,40,43,43,44,44,45,45,46,46,47,47,48,48],"right_children":[2,4,6,8,10,12,14,16,18,20,22,24,26,28,30,-1,-1,32,34,-1,-1,-1,-1,36,38,40,42,44,46,-1,48,50,52,54,56,-1,-1,58,60,62,64,-1,-1,66,68,70,72,74,76,-1,-1,-1,-1,-1,-1,-1,-1,-1,-1,-1,-1,-1,-1,-1,-1,-1,-1,-1,-1,-1,-1,-1,-1,-1,-1,-1,-1],"split_conditions":[1E0,5.145585E1,4.164919E0,1.049629E2,6.910375E1,1E0,1E0,4.164919E0,1E0,3E0,1.724555E2,1.32466E2,1E0,1.5246236E2,2E0,-3.8914017E-2,-2.425192E-1,1E0,1.47481E0,-6.85344E-2,-2.6869088E-1,-1.6178437E-1,1.4548187E-1,3E0,2.068518E0,1.999902E2,1.7247417E2,1.424855E2,1.600122E2,-2.8166062E-1,1E0,1.486128E1,3E0,1.649853E2,3.6387992E0,-3.6285752E-1,1.6565257E-1,1.749919E2,4E0,1E0,2.1015628E2,2.324213E-2,-2.5610238E-1,1E0,1.499913E2,1.6917768E1,